[{"t": "Conv2D", "o": 32, "w": [[[[-1113298979, -1098410851, 1049194961, -1100641302, 1047603469], [1045132706, 1050654039, -1093010724, 1040178851, -1097283428], [-1090496592, -1095698892, 1069014279, -1096265741, 1051923940], [1061082877, -1073672817, -1129985978, -1098894521, -1114960128], [1065258867, 1055204918, -1089491100, 1055232464, -1105752524]]], [[[-1101029187, 1054330236, 1057738933, -1086637423, -1098495394], [-1095021361, -1083863791, 1073924576, 1064097802, -1101111827], [1058895570, -1073627512, -1074600598, 1070675697, -1123853660], [1059957557, 1065370439, -1081409635, -1087538245, 1050761118], [-1097125422, 1054922426, 1038823088, -1155466185, -1107238687]]], [[[1049558045, -1092260132, 1048610524, -1112814031, 1013738065], [-1101505518, 1053511778, 1053218356, 1053145030, 1043143809], [-1098563451, 1053026831, -1071480237, 1066562387, -1112357590], [1042425175, 1016537228, 1058726222, -1110979915, 1036684288], [1022365907, -1097462353, 1023578992, 1021147112, -1121272884]]], [[[1054009170, 1027370506, -1079290516, 1052851402, 1032010794], [-1098346346, 1074075436, -1079953346, 1034759044, -1097093280], [1056416977, -1077396929, 1056114360, 1039640098, 1058463218], [1057628115, -1081391902, 1062608876, 1054114254, -1086690811], [-1107035581, -1082241911, 1058043058, 1048912668, 1044289642]]], [[[-1120679471, 1055433216, -1090249794, 1054626211, -1115534376], [-1095107285, -1104434576, 1049669476, -1081773557, 1002028025], [1065547928, -1085099301, 1066918325, 1069312357, -1108640122], [-1085546632, 1058262426, -1071977992, 1041411649, -1101927538], [1048306608, -1100628259, 1064854480, -1087301898, 1040242826]]], [[[1043903053, 1058820588, -1080284337, 1040982471, 1041297550], [-1146716591, 1067724008, -1078668558, -1108297167, 1034120337], [1057592793, -1085560169, -1091088176, 1063067302, 1044110977], [1053560220, -1079214104, 1065808769, 1058802016, -1082843777], [-1130951135, -1086672853, 1057109032, 1051141983, 1045859986]]], [[[-1121555027, 1042783740, 1023671202, -1104590857, -1107251603], [1039020097, -1095472607, 1031831144, 1056085951, -1096112482], [-1102682685, 1058654718, -1084433780, 1075029599, -1075875753], [1019669455, -1108634698, 1050597816, -1095375016, 1052795507], [-1115225751, 1033769688, -1110759421, 1020191241, -1114018544]]], [[[1042188147, 1036718991, 1064609654, -1104879015, -1119176152], [-1122085765, -1095313141, -1095903781, 1067870618, -1089891825], [-1107147318, 1051573110, -1064962475, 1060795158, -1098893341], [-1138741784, 1028905008, 1040861614, 1050636233, -1131373328], [1042658624, 1040289943, -1106650451, -1098606921, 1044266933]]], [[[-1111572040, -1113204388, -1103812125, 1046796220, 1029391419], [1035185236, 1021141786, -1092940542, 1067614792, 1037791677], [1026172011, -1094373834, -1076706845, -1125490973, 1028955877], [1048603747, -1125463902, -1100507025, 1018757105, 1052724104], [-1098777583, 1038423653, 1059119640, -1097481997, 1014554698]]], [[[-1104475399, 1056976823, -1086939362, 1043609936, 1040572632], [1039434720, -1093502193, 1075232579, -1106223174, -1096344527], [1050584461, -1079549322, -1089741680, 1073074065, -1115669755], [-1092704202, 1052787818, -1074720124, -1090291384, 1050652128], [1030413304, 1014189700, 1053291282, -1096773402, 1041413394]]], [[[-1097125744, 1066476118, -1089610394, -1094824905, 1032487905], [1022935867, -1090069763, 1043628156, -1096856527, 1060360738], [1055968718, -1080758278, 1053699833, -1084154538, 1056117855], [-1113530449, 1058613350, 1046736204, 1070864119, -1076974052], [-1106696131, -1103142680, -1129192280, -1113798023, 1048576385]]], [[[-1115287057, 1032534163, 1022664788, -1103518807, 1024553274], [-1109061904, -1101703556, -1101164849, 1050982817, -1110112872], [1040562983, -1086933716, 1072832700, -1092560402, 1043640691], [1040284307, -1123012661, -1090465434, 1046155474, -1128730638], [-1105728126, 1035253497, 1033656481, -1110114062, 1024365427]]], [[[1040702083, 1042209713, -1101470420, 1039292747, -1111371761], [-1124297850, -1089084766, 1060520226, -1108028290, 1034331651], [-1105696797, 1079092737, -1082108984, 998759374, -1100255828], [-1105914738, 1014575777, 1049334117, -1115858091, 1027621185], [1038716654, 1044996691, -1102504726, 1045257881, -1121019899]]], [[[-1100542225, -1093677653, 1061164514, 1060694581, -1091917278], [-1100068817, 1069763317, 1066620952, -1072090889, 993513700], [-1105665625, 1062565920, -1072458123, -1101016326, 1062446270], [1018646981, -1094439551, -1103881982, 1060143793, 1048455524], [1040719428, 1048959866, -1092279675, 1049826656, -1105832538]]], [[[-1137143618, -1103404231, -1077682646, 1047903820, 1051163477], [1017531813, 1062040069, 1072530734, -1082063384, 1042824785], [-1105732318, 1058367949, -1069553907, 1070503228, -1114017752], [-1121965160, -1105653539, -1096169415, -1098563726, -1095747963], [-1131008256, 1049075999, -1094388570, 1060331974, -1157022946]]], [[[-1118905703, -1100545403, 1051112439, -1097671088, 1048047417], [-1131311032, 1053924718, -1087774430, 1054158070, -1098647186], [-1114292795, 1022888454, 1072430346, -1069530851, -1156164319], [-1172942140, 1043205736, 1042852108, 1054322519, 1018440608], [-1137974272, 1047578917, -1096227193, 1049181841, -1102797285]]], [[[1038022556, -1105166231, -1102023324, -1091969157, 1046809109], [1032866710, -1135332856, 1068592015, 1065006828, -1100466527], [-1090943196, 1068965672, -1065938040, 1065606330, -1113116024], [-1115210248, 1056386413, 1058056811, 1054160682, -1095164176], [1044757697, -1105074673, -1103926659, 1046114417, 1042442208]]], [[[-1112307068, 1033662097, 1013711387, 1031584157, -1112956556], [1012789575, 1031176267, -1120931344, -1112174050, 1011329443], [-1072207975, 1077487733, -1086175994, 1056970573, -1104387902], [-1102603341, 1022598744, 1035437505, -1103421156, 1027026224], [-1145511450, -1137700904, 1027816848, 1034130082, -1124500926]]], [[[1033333031, -1096591719, 1041059244, -1088191850, 1052008784], [-1105487670, 1067527590, -1102389608, 1061317044, -1096948765], [1040711357, -1066599960, 1069589512, -1107179714, 1054633298], [-1105825118, 1057825734, -1081222873, 1035228093, -1095997503], [-1120013976, 1020558123, 1016538155, 1047709476, 1027587383]]], [[[-1103523788, 1044221322, -1121237057, -1110970852, 1028198334], [1043195070, -1080323858, 1062593493, 1061734583, -1108157254], [1059868094, -1090459318, -1071084094, 1063952514, -1100779810], [1052204358, 1073080336, -1090695354, -1082090656, 1049312836], [-1087983042, 1053672251, 1057053428, 1025104881, -1122279669]]], [[[-1117531533, 1014305962, 1031808737, 1034548486, -1116977039], [-1121592082, -1112990490, -1118179861, -1101956059, 1040693290], [-1073456180, 1075931924, -1087222535, 1059179977, -1101086855], [-1109580425, 1051348294, 993127854, -1106552548, 1022511169], [-1114939304, -1130990536, 1031111728, 1020145864, -1128194755]]], [[[-1110829071, 1034770134, -1101656851, -1105136839, 1041930926], [-1107909396, 1053096107, -1094727627, 1026811613, -1104554395], [1016717215, 1043264550, 1049089594, -1082114382, 1057843312], [-1105693754, 1042201620, 1048169603, -1118434161, 1050391238], [1010401544, -1097818850, 1045457171, -1097162147, -1106697247]]], [[[1041974138, -1092065030, 1056681385, 1063719407, -1091251376], [-1104619555, 1050984531, -1074965721, 1072388474, 1054489557], [-1097563665, 1055409002, -1079945439, -1079122776, 1061446087], [1035620837, 1037548534, 1054888122, -1112249769, -1111435589], [1016728897, -1122875644, 1035088729, -1097816548, 1043739693]]], [[[-1115625149, 1049540629, 1041200156, 1039330211, -1105127204], [1034748107, 1055568410, -1084515757, -1082122863, 1055567245], [-1103435755, -1082382199, -1079908712, 1072978458, 1041168886], [1049435611, -1097838263, 1071840052, 1063366183, -1084274044], [-1105503828, 1053835939, -1118306619, -1084091465, -1098070755]]], [[[966873023, -1118958619, -1122414074, -1122330994, 1034521232], [-1132726111, 1040802745, -1107101756, -1095652120, 1045542296], [1044400949, -1093432917, 1062551773, -1073389142, 1070517028], [-1120621671, 1040567680, -1101993576, 1044713260, -1126546655], [1038638117, -1103199325, 1041098327, 1030102193, -1120380943]]], [[[1045467075, -1092138772, -1079361395, 1053847078, 1050272301], [-1088768742, 1069774529, 1076741577, -1077525504, -1093187858], [-1088966834, 1076862547, -1076147371, 1063455606, 1057820119], [991049053, -1079268666, 1065680448, -1085215067, -1122046285], [-1120541628, 1060152271, -1098020576, 1048658215, -1131610166]]], [[[-1107125120, -1102682078, -1101269359, 1044963744, -1134837943], [1048026552, -1105870227, 1066263947, 1069544532, -1089913939], [1049467351, -1091423136, 1071292567, -1076471047, -1084104853], [1018673063, -1099474282, -1103197993, -1083916332, 1054255013], [-1118812210, 1046312293, 1058038377, -1085184587, 1044244383]]], [[[-1109172619, 1024208826, -1105180282, 1018492208, 1023707133], [1049560913, -1102610477, 1075709736, 1059637325, -1104538894], [-1109340481, 1059794571, -1076043783, -1077278080, -1095538418], [1030073607, -1108792087, 1059415840, -1113944179, -1123203269], [-1120523272, 1043200344, -1098463728, -1102424974, 1038555181]]], [[[1034347114, 1033430543, -1120790941, 1040524995, -1116784925], [-1118088548, -1095475400, 1050394857, -1093090347, 1053375690], [1025517011, 993919074, -1111534317, -1107228495, 1049339351], [-1110724290, 1052263987, -1092301647, 1050477068, -1104732720], [1040698526, -1110019382, -1130206707, 1046875142, 1034154027]]], [[[-1097427231, 1053662140, 1052724209, -1093299714, -1118100733], [-1105035939, -1080043087, 1068615357, 1057764494, -1112737806], [1062903770, -1080123485, -1076473185, 1069423756, -1094836120], [1050275697, 1070837532, -1084114569, -1084861504, 1052868298], [-1091862336, 1051754873, 1050164915, 987903839, -1111099634]]], [[[1024574463, 998395182, 1042332326, -1118567780, 1026851890], [1032765178, 1043378430, 1050190712, 1027785012, 1015370474], [1039419195, 1047332601, 1075302140, 1019827076, 1037904005], [990629872, 1048217168, 1048998152, -1106311932, -1156900425], [1004788225, -1146090153, 1040615338, -1129649459, 1022780322]]], [[[1029783307, -1106653317, -1082948303, 1026458183, 1039573253], [-1145753339, -1095861859, 1075642140, -1098566410, 1037293691], [-1083540334, 1076532364, -1054587857, 1067199313, -1096553278], [-1117131702, -1098941317, 1074630446, -1094883704, -1107622730], [1033108772, -1109688889, -1086918855, 1037919946, 1039199690]]]], "b": [1023391786, -1115044472, 1009308056, -1115156838, -1130453540, 1033833219, 1029250943, -1134691876, -1126820804, -1129405998, 957393776, 1017915753, -1073347859, -1127555170, 1030339451, 1015635091, -1084443612, -1124941143, 1030034881, -1114674688, 1030338836, 1052800114, 1041432046, -1123947770, 1031422337, -1072820988, 1035703676, 1034621449, 1029857075, 1029327689, 950289933, -1166445036]}, {"t": "Conv2D", "o": 5, "w": [[[[-1175522320]], [[977931695]], [[-1143498611]], [[989802986]], [[-1155547377]], [[966762467]], [[-1155289919]], [[-1151663606]], [[989202272]], [[-1172447806]], [[-1172277295]], [[1007324345]], [[979844124]], [[-1164699012]], [[-1155129506]], [[-1166010868]], [[-1158634379]], [[946855168]], [[-1153650010]], [[-1183237275]], [[985318062]], [[981634000]], [[994684191]], [[986585686]], [[995738921]], [[999620368]], [[988073744]], [[-1147997385]], [[-1171194498]], [[-1152280373]], [[1052439108]], [[997825928]]], [[[-1094865793]], [[-1105022657]], [[-1095999642]], [[1050881199]], [[1051133452]], [[-1103954533]], [[-1095562829]], [[-1092302076]], [[-1095470880]], [[-1107269154]], [[-1097269963]], [[-1089619585]], [[1051646858]], [[-1108409931]], [[-1101578405]], [[1034856260]], [[-1123989283]], [[-1105498781]], [[-1140311943]], [[-1100366372]], [[-1095392532]], [[-1092138946]], [[-1116325387]], [[1046482077]], [[1033697324]], [[-1097667490]], [[-1092873701]], [[1041464350]], [[-1117200454]], [[1041908086]], [[-1090089040]], [[-1089938931]]], [[[-1108913446]], [[-1097906612]], [[1049109027]], [[-1104195529]], [[1032415682]], [[1047489369]], [[-1104032088]], [[1038789817]], [[1050281950]], [[-1110199594]], [[-1105563517]], [[1035404250]], [[1033525439]], [[1050803035]], [[1021073978]], [[-1106173841]], [[-1116246641]], [[-1110063287]], [[-1108724506]], [[-1097065385]], [[1043910684]], [[-1109529879]], [[-1097038602]], [[1048665782]], [[1039747011]], [[-1120476202]], [[1041948410]], [[1039197798]], [[1039005484]], [[1052026952]], [[-1114901510]], [[1041547654]]], [[[1032012795]], [[-1136764716]], [[1050074608]], [[-1123225318]], [[1027947332]], [[1005160684]], [[1032191494]], [[1049949242]], [[1026217577]], [[1044559492]], [[1034498156]], [[-1124472305]], [[1026410141]], [[1024056269]], [[1046623070]], [[-1105255803]], [[-1100068631]], [[1032080082]], [[-1104015000]], [[-1153104483]], [[-1146404113]], [[1039208958]], [[-1121646453]], [[-1122820761]], [[-1120675551]], [[-1097417156]], [[-1109341290]], [[1047998780]], [[1023093640]], [[1031229415]], [[-1133102519]], [[1052948708]]], [[[-1133833558]], [[-1120354803]], [[1012578089]], [[-1117215439]], [[-1114240805]], [[1020182063]], [[-1112259077]], [[1036289842]], [[985598408]], [[1029461224]], [[1028803863]], [[-1101621275]], [[1042449999]], [[-1127303378]], [[1034938468]], [[1026250423]], [[-1129767315]], [[-1107049183]], [[-1115107384]], [[-1122234719]], [[1040795692]], [[-1112203239]], [[994666437]], [[-1116192557]], [[1041315778]], [[-1121334130]], [[-1124677593]], [[-1134776339]], [[-1097729925]], [[1032496865]], [[-1114815051]], [[-1125175726]]]], "b": [-1178484555, -1104716824, 1015350770, -1119996351, 1053585699]}, {"t": "Conv2D", "o": 5, "w": [[[[1008912531, 1029008496, 1029470633], [1039742476, 1052204423, 1046557881], [1035312476, 1050129158, 1044390712]], [[1050428421, -1103281546, 1032967877], [1048510041, -1108490564, -1127908361], [1027982643, -1110913249, 1050443938]], [[-1130350364, 1016320824, 989230566], [1027956545, -1113038212, 1017736257], [1019909349, -1123592069, 1021305091]], [[1016038120, -1119221234, -1129618972], [1028561635, -1113844090, -1141759872], [1032201604, 1025606543, 1003669877]], [[1013535172, 1033770799, 1030151820], [1049580992, -1088878723, 1043254958], [1024650997, -1102821420, 1042330388]]], [[[-1106951177, 1041151270, 1008529701], [1065709449, -1074642305, 1048694825], [-1086972895, 1071378049, -1098001018]], [[-1106866770, 1041643069, -1102471475], [1047795648, -1098166549, -1108258253], [1047234761, -1096693273, 1046775691]], [[-1106257409, -1118747336, -1115138765], [-1094009690, -1090183186, -1121502133], [-1092192909, -1097424370, -1105157189]], [[1042606988, 1034074854, 1018190131], [1050459850, 1050370166, 1032298648], [-1107382827, 1048721135, 1043014381]], [[-1098973126, 1041321521, 1039123211], [-1088138737, -1092873445, 1040790751], [1067454659, 1046596941, -1116077267]]], [[[1022758364, -1097205522, -1100699172], [-1113601079, 1028162703, 1027070650], [-1131984059, 1040307801, 1048735258]], [[-1098522547, -1101763772, -1110126672], [1048757893, 1046040293, 1021526217], [-1119202895, 1051433367, -1112487947]], [[1023954532, 1018192604, 1024591897], [-1124394731, -1098135345, 1029197835], [1032101554, 1026590758, 1027347856]], [[-1121260287, 1027622620, 1032742988], [-1163144576, 1058651857, 1031704306], [990616408, 1017010317, -1139918677]], [[-1103229551, -1101483184, -1107567332], [1032186771, -1083810133, 1044794173], [1035452509, 1045333020, 1048084501]]], [[[-1097538566, 1036226090, 1002744872], [1060906237, -1082555191, 1009911873], [-1112620197, 1053204934, 1026288039]], [[-1097902487, 1033286033, 1047547636], [1044355626, 1037878602, 1035695715], [1037469219, 1055629671, -1134909312]], [[-1125891222, 1021075923, -1131221734], [1039101956, -1120733404, 1030835889], [1035884033, -1121553154, 1024638708]], [[1040730877, 1026266904, 997504185], [1050380810, 1050004550, 1043932849], [1044373268, 1042939987, 1025495562]], [[1016032130, 990418312, -1128063749], [1051455491, -1089036961, 1044284000], [-1105645033, -1092659145, 1042241145]]], [[[-1101630117, -1091393460, -1103151145], [1055345994, 1066564929, -1098331775], [-1154287499, -1095705844, 1018775912]], [[-1138515554, -1113474889, -1099016158], [-1105215067, 1010647964, -1098062123], [-1098984998, -1106442840, 1024659633]], [[1011336550, 1013941381, -1119025743], [1035772173, 1033598617, 1031450911], [1040725689, -1127928468, 1021018695]], [[1042148911, 1040320461, 1027253096], [1050681402, 1057780318, 1049182766], [1040493060, 1039914179, -1137354759]], [[1035659889, -1118370932, -1103289368], [1049245815, 1050258218, 1043365607], [1018802390, -1096597391, 1036474814]]]], "b": [-1183599571, -1105952387, 1047415101, 1043568340, -1105687574]}, {"t": "Conv2D", "o": 5, "w": [[[[1028155810, -1102156857, 1036285392], [-1090683596, -1113225495, 1016003990], [-1091550592, -1098093365, 1044482857]], [[-1098710701, -1106862588, -1109648308], [1013640168, 1032784143, -1093916111], [1049911486, -1120468061, -1114676309]], [[1035220301, 1043925049, -1101284359], [-1151522817, -1116423207, 1022656824], [-1098313523, 1024679519, 1027402547]], [[-1093806676, -1093947468, -1118895196], [-1096637771, -1099403654, 1051229714], [-1106248082, -1131917125, -1139546145]], [[-1098835865, -1098710145, -1098938436], [-1112091042, -1121784351, -1117305505], [-1103475584, 1045943322, -1096527498]]], [[[1043137427, 1050496945, 1036152272], [-1094244500, -1088598985, -1111584579], [1041497668, 1042738780, 1048827848]], [[-1136104583, -1124534509, -1123975521], [-1114292100, 1055789531, -1115343162], [994332333, -1106072921, -1182687814]], [[-1135008610, -1147823377, -1118165589], [-1108098298, -1101101986, 1046954429], [1049576630, -1114156113, -1117985371]], [[-1119513165, 1033246764, 1014964632], [-1148116380, -1088339051, -1096915170], [-1120109756, -1112996631, -1101224810]], [[-1121324019, 1027199990, 1026153731], [1049163953, 1053273490, 1050114091], [1026655238, 1049371225, 1050185095]]], [[[-1099820338, 1050203039, -1113258926], [-1105813812, -1098995338, 1049082349], [1032041483, 1042810270, -1118692931]], [[1013490652, -1110070233, 1026334134], [-1137373308, 1040453589, 1019282926], [1028986439, -1110342487, -1122565651]], [[-1122649383, -1118905805, -1115400230], [-1107626027, 1046857390, 1024869803], [1024516049, 1024270736, -1119901281]], [[1018037322, 1021046478, 1036276427], [1025824765, -1103778664, -1116536529], [-1115911083, -1105649856, 1033659848]], [[1029811019, 1009954892, 1036431343], [-1120469076, 1058343990, 1043836611], [1036685739, 981610604, 1028468635]]], [[[1034988532, 1051654272, -1113080384], [1054756514, 1043632451, 1048906093], [-1118709126, 1028902040, -1107139351]], [[-1126949766, 1035265965, 1015675944], [1014878534, -1102983965, 1032294533], [1017675103, 1019290357, -1131104135]], [[-1115768845, -1116776969, -1118105431], [1045365463, 1035483122, -1114432786], [-1107641978, 1035818902, -1131959652]], [[1023866400, -1106806241, 1034311911], [-1111216848, 1035496361, 1009768081], [-1122779701, -1118313562, 1036984164]], [[1018370099, 1028651169, -1138982269], [-1110415947, 1049139913, 1024129930], [-1137583525, -1106910454, -1108954742]]], [[[-1132654320, 1055955420, -1123953274], [1039270820, -1082033503, 1045889568], [1024444001, 1046731790, -1154008315]], [[-1121177475, -1130432464, 1033133077], [-1127654715, 1002504788, 1029542404], [1027212131, -1112205092, -1122636943]], [[-1119733154, -1108895743, -1107836681], [1032763433, 1047289382, -1122773291], [-1131358252, 1038781966, -1117287704]], [[1017042051, 1008547471, 1034274729], [1023671553, 1060933298, -1143365579], [-1106995296, -1102149524, 1028841565]], [[1033524610, 990114245, 1037312647], [-1112279218, 1039476624, 1045270126], [1040939906, 1030939266, 1024595379]]]], "b": [-1118916880, -1153051085, -1145736636, 996223720, -1179942690]}, {"t": "Conv2D", "o": 5, "w": [[[[1034536083, -1098855662, 1040650275], [-1116928423, -1107246390, 1052343924], [-1105231946, 1037980433, 1042482746]], [[1035844849, 1047467819, 1021981119], [1039336847, -1084547340, -1100359320], [-1115383832, 1037392490, -1106943901]], [[-1128475477, -1104868364, 1032131787], [1030517471, 1059155353, 1051061632], [1032335213, 1047952425, 1053465519]], [[-1111846473, -1102321132, 1043628707], [1043434514, 1057727587, -1103400184], [-1098199797, 1049675914, -1094441845]], [[-1109553751, 1040240803, -1107176252], [1041078037, -1106512142, -1101147156], [1045320705, 1035280608, -1115002839]]], [[[-1090373697, 1051806965, -1105408261], [-1103175228, -1094176516, -1111312570], [-1124832971, 1018494853, 1028827663]], [[-1105779694, -1093930061, -1109797888], [-1101841189, 1059365332, -1110503079], [-1109832078, 1043990539, 1047782639]], [[-1140050905, 1051415501, -1105271965], [1037350257, 1051893217, -1096374826], [1038657275, -1107451255, -1097799057]], [[-1110238905, 1053621718, 1035013433], [-1123126472, 1049273236, 1050857299], [-1112435999, 1040298585, 1031678283]], [[1049744450, -1096551566, 1044298359], [-1125477196, -1083413045, 1053563420], [1024845396, 1051917323, 1012064159]]], [[[-1104762985, 1033566917, 1028143015], [-1112296854, -1094715391, 1050970384], [-1094794664, -1101314931, 1041792503]], [[1044622515, -1102785675, 1025308322], [1054688056, -1081215639, 1021921764], [1051520324, 1058238271, 1001925557]], [[1020855607, 1032094769, -1120336843], [1042715699, 1052314996, 1041175877], [-1099135934, -1098185019, 1023671165]], [[1013632907, 1050321079, -1128064949], [1017706217, -1079183288, 1054881157], [-1123528229, 1063026551, -1099089601]], [[-1102402098, -1131171379, 1016122690], [-1109700575, 1057413416, -1101100927], [1051152330, 1047295882, 1033550586]]], [[[-1098615543, -1114737644, 1036086537], [1050102669, 1034971798, -1102664731], [-1101201961, 1047791225, -1105816166]], [[-1127270696, 1046074699, 1029033867], [-1112383422, -1091950623, -1139132699], [-1111113282, 1028235306, -1135326271]], [[-1127423581, 1037935282, -1118158151], [1040698207, -1094289148, -1130234071], [1044122300, 1048836787, 1027585476]], [[1017011412, -1112070809, -1115128739], [1039391892, -1140528767, 1049168663], [-1098466807, 1047849410, -1101850249]], [[1018848873, -1106559655, 1016814988], [-1111853800, 1058117561, -1107240303], [1038949271, 1040786247, 1029036234]]], [[[1050759088, -1100743192, 1008708803], [-1095609813, 1051522887, 1042715322], [-1102156288, -1107103471, 1047150571]], [[-1113130650, 1053175959, 1063813585], [1036958870, -1082030019, -1082095267], [-1114583948, 1058288106, 1041281171]], [[-1098194703, -1082909225, 1043649636], [1056260423, 1058123082, 1056813427], [-1112043698, -1094777995, 1044414652]], [[-1118661681, -1092090888, -1105351515], [1037024549, 1057207850, 1043199873], [-1099510112, 1051829228, -1101521197]], [[1027189542, 1065768329, -1087551377], [-1099438928, -1080918764, 1039862016], [1053089777, 1057588356, -1127152797]]]], "b": [987732367, 958206940, 998621232, 992500807, 1018959268]}, {"t": "Conv2D", "o": 5, "w": [[[[-1096274852, 1052701669, -1102897302], [1024690615, -1111173655, -1137657680], [1045540227, 1019340089, 1013657663]], [[-1126758286, 1044342909, -1119247799], [1042723069, -1097185702, 1017328521], [1039646499, 1023639512, -1143080837]], [[1022614988, 1049158674, 1037533608], [1009958134, -1114460046, -1140666936], [-1118566162, -1108241839, 1039154983]], [[1033134187, -1108086975, -1109291270], [-1098722056, 1069304047, -1100297421], [-1096406938, 1031362656, -1092322616]], [[1026068366, 1027064328, 1023433827], [-1118300911, 1034367569, 1022704126], [1024098249, 1045572631, -1135464545]]], [[[1058457735, 1034935337, -1115107701], [-1092767610, -1077660479, -1111242717], [1049314893, 1061218800, 1032796386]], [[1043149028, -1089695235, 1031787049], [-1090720705, 1065771970, 1041158917], [1039885199, -1096367439, -1101739273]], [[1011712237, -1093564577, -1100325858], [-1097075589, 1052107921, 1060958546], [-1114102852, -1099681359, -1086865561]], [[-1098412710, 1057586482, 1060311643], [1058820894, -1095822590, -1086052593], [-1106729934, -1082090456, 1054092262]], [[-1120723062, -1100745599, 1025036398], [1053024223, 1059015501, 1042539066], [1039704772, 1059432557, 1044767995]]], [[[-1095160956, 1050375422, -1102766981], [-1088228446, 1065914595, -1114888044], [-1123725935, -1115006658, 1030071237]], [[1015225072, 1042714293, -1122515420], [1027208235, -1106866966, -1118672422], [-1108050961, 1047250865, -1127218333]], [[1039176809, 1048063589, 1031045755], [-1110013647, 1051622566, -1111484006], [-1110304637, 1033002719, 1018400152]], [[1016985801, 1027718717, -1103392951], [1049434957, 1066624567, -1094170650], [-1100877888, -1097284656, -1094597865]], [[1028414052, 1030938500, 1017503710], [-1122457005, -1115944654, -1154982050], [1042415617, 1050456909, -1117903612]]], [[[-1100875880, 1043656240, -1114085649], [-1107352328, 1067329609, -1098381941], [1035034748, -1086683179, 1015315581]], [[-1127458833, 991126195, -1120536866], [1050004222, 1057138222, -1113519285], [-1101769364, -1093075518, 1030715442]], [[-1135016553, 1038309105, 1018538335], [1031783170, -1137658857, 1036776048], [-1098140264, 1051394234, -1127991590]], [[-1120857942, 1038999382, -1112870811], [-1103321350, 1064665140, -1094404687], [-1114283818, -1108123597, -1096922199]], [[1009385474, -1139338400, 1011481590], [-1159240114, 1025587773, 1030489893], [1041102525, 1054538078, 1022731427]]], [[[-1088837032, 1051253942, -1097608958], [-1098845220, 1066513101, 1026384992], [-1088718287, 1054078502, -1103578584]], [[-1108929982, 1022260024, -1106231003], [1050071553, 1059069554, -1110593028], [1047421173, 1048635687, -1120868971]], [[1041138907, 1058980012, 1024580328], [1055295395, -1079029241, 1051113663], [1044385423, -1093698047, 1016066425]], [[1031476880, 1040905629, -1112078153], [-1113673098, -1088992657, -1104881019], [1053397653, 1049156222, 1031169733]], [[1027802834, -1113162391, 1024580435], [-1119677687, 1054201432, -1104031021], [-1113453417, -1101992214, 1034787826]]]], "b": [-1141079755, -1113467638, -1140337153, -1139635103, 1038712686]}, {"t": "Conv2D", "o": 32, "w": [[[[-1094456481]], [[1040719949]], [[-1100615162]], [[-1078651208]], [[-1081129954]]], [[[1036078272]], [[1027033737]], [[1040249423]], [[-1109888204]], [[-1131397537]]], [[[1054155575]], [[-1098430345]], [[-1099149014]], [[-1085572418]], [[1025713446]]], [[[1055105958]], [[-1105888366]], [[-1120152515]], [[-1092259318]], [[-1121882619]]], [[[-1088935622]], [[-1114903694]], [[-1119806909]], [[-1090546202]], [[1042083593]]], [[[-1111504750]], [[-1122522111]], [[1042452263]], [[-1107261994]], [[1011677228]]], [[[1052604637]], [[-1102965495]], [[-1086521109]], [[-1103169917]], [[1025552623]]], [[[1049897543]], [[1010496510]], [[-1123704604]], [[-1111353563]], [[-1125381279]]], [[[-1102976388]], [[-1126434062]], [[1041370056]], [[1020696065]], [[1012598443]]], [[[1034461557]], [[1035880229]], [[-1092222597]], [[1047115491]], [[1010336322]]], [[[1036423798]], [[1025361280]], [[-1106114665]], [[-1123093891]], [[1009549052]]], [[[1028570617]], [[-1120440321]], [[1033042519]], [[1036497282]], [[-1122896644]]], [[[1049919026]], [[1024803718]], [[-1144288663]], [[-1096289561]], [[-1131246591]]], [[[-1092133508]], [[-1107706843]], [[1053553398]], [[-1102795795]], [[1023634769]]], [[[-1098236930]], [[-1106069076]], [[1051770134]], [[-1088468141]], [[1031880120]]], [[[-1155522531]], [[992926441]], [[-1151322935]], [[985391574]], [[1044858797]]], [[[1057588996]], [[-1102527487]], [[-1089830393]], [[-1106655602]], [[-1130998978]]], [[[-1096425969]], [[1047658713]], [[-1089341353]], [[1041035978]], [[1035915031]]], [[[-1115587320]], [[-1116300927]], [[1043990041]], [[-1131467617]], [[-1139200966]]], [[[1025521460]], [[1029894876]], [[1039771874]], [[-1104887883]], [[958798835]]], [[[-1112556320]], [[1036574338]], [[1044052771]], [[-1123919914]], [[-1138220600]]], [[[1000596416]], [[1042886712]], [[1026101041]], [[-1110297988]], [[-1109282431]]], [[[1056017092]], [[-1095527256]], [[-1112576400]], [[-1092325433]], [[-1120846676]]], [[[1036689872]], [[1034599393]], [[1030749266]], [[-1128551308]], [[-1125517308]]], [[[-1113387443]], [[-1110971741]], [[1038552896]], [[1016910537]], [[-1088498806]]], [[[-1172579079]], [[-1121226130]], [[1002728987]], [[-1123264333]], [[-1180014572]]], [[[1044707635]], [[-1117143499]], [[-1140226298]], [[-1150739636]], [[-1125681952]]], [[[-1087720526]], [[-1125129765]], [[1047429232]], [[-1102018801]], [[1035253238]]], [[[-1089957726]], [[-1123935787]], [[1029869243]], [[1043266145]], [[1029511868]]], [[[-1115624309]], [[-1112177505]], [[1040133544]], [[-1081277368]], [[1039939810]]], [[[-1110503354]], [[1051640634]], [[-1103233983]], [[1044533522]], [[-1135490218]]], [[[-1140755607]], [[1019163104]], [[-1131861609]], [[1041349398]], [[-1135189424]]]], "b": [-1137470523, 1006859418, -1130801286, 958010246, -1123080753, 1002049245, -1128051798, 1010155597, 997428248, -1133129316, 991496988, -1186601835, -1147493494, -1134444638, -1130881857, -1128219662, -1133754792, -1123304743, 1003275971, 1003642651, -1154434408, -1158028455, 992165976, -1174295701, 1032846613, -1124422258, 1006405129, -1127299217, -1130831383, -1122309962, -1134844168, 993695992]}, {"t": "Subpixel", "s": 2, "o": 4, "w": [[[[-1138384211, -1127080550, -1131176670, -1131033449, -1113578869], [-1124888787, -1114129831, 1023206690, -1127081939, 1013467486], [-1109869462, 995564857, -1115404885, 1033536527, -1125452007], [-1120676729, -1119374941, -1121043367, -1127262223, 1022626157], [1030060959, -1119952429, 1034840366, 1027661343, 1032124277]], [[1001105843, -1121429060, 1025951082, -1118072921, -1131575020], [-1139029546, -1110684728, -1098326852, 1036664547, -1119666741], [-1147526012, -1115412542, 1058106214, 1036787156, 1035846032], [1027434996, -1102395030, 1041597079, 990667015, -1106702887], [-1126282442, -1117955040, 1038017070, -1113571957, 1024906076]], [[1010980642, -1143062316, 1030045599, -1118321374, -1132993578], [-1116675555, 1040348483, -1112465454, -1098626736, 1016221351], [999286671, 1036923342, -1101688594, -1112711790, 1020483221], [1020044646, -1117149190, -1117269696, 1035788346, -1121991976], [-1147203127, -1131539143, 1024317697, -1134044907, 1015967207]], [[-1135506188, -1119379226, -1119506854, -1132928606, -1128816641], [1016613841, 1031964280, 1048068047, 1040414765, 1025082650], [-1116228692, 1042762572, -1086501478, -1139636380, -1115504904], [1021163511, 996808904, -1103233840, -1123974789, 1002982672], [-1137423758, 1020965818, -1155847222, 978171339, 1014234311]], [[1004499983, -1144825045, 1012180851, 1022293741, -1142388737], [-1148716415, 1014274485, -1119061926, 1037780230, 1015800877], [1007455778, -1122946458, 1023631561, 1053068645, 1037981136], [941493131, 1018169355, -1131622791, 990557821, -1131516755], [-1160703870, -1134038898, -1132647071, 1017838405, 987305872]], [[-1120871311, 984533278, -1106456343, -1114551178, -1126140539], [1031975295, -1114157437, 1053371189, -1125543642, -1113698008], [1021827302, -1105027116, 1041286235, 1042375701, -1104833744], [-1126254795, 1034201152, 1023769028, -1107962579, 1005295614], [1007284145, -1121161886, 1028477568, 1016711585, -1129265816]], [[-1137379546, 1025234261, -1157553632, -1120821105, -1127178446], [1001912993, 1027394711, -1105426322, 1027164832, 1017590439], [-1148770393, 1024446664, -1096239431, -1114509938, -1119961971], [-1138998332, 1028084673, -1108626664, 1019813110, 1017365270], [999933975, -1164650176, -1135253326, -1127862672, -1133709931]], [[-1113831579, 1020008347, -1106010911, 1028994217, -1120445117], [1025523512, -1111307494, 1058844996, -1089860117, -1117663501], [1033227407, 1040600562, -1135801299, 1046160842, -1109767823], [-1118850458, -1115577598, -1105745167, 1037624409, 1038840677], [-1137601636, 1015404062, -1117673678, -1142270143, -1139402424]], [[998366991, -1128243161, -1113400721, -1129847936, -1137867605], [1019635563, -1117444435, 1049929943, -1088343631, -1123388785], [1036558710, -1099154404, -1096939676, 1069670068, -1096789869], [-1121359810, -1119292863, 1039910682, -1096998455, 1033774147], [-1150199907, 1018162255, -1157229861, 1016794399, -1126183750]], [[-1155666338, 1015845474, -1120307155, 1024543548, 1015527359], [1016939556, -1122471558, 1034642786, -1097565830, 1023139615], [1003087162, 1032725321, -1094828553, 1057078920, -1140570101], [-1134413487, 1017941222, 1030840854, -1112880230, 1026026870], [-1187497140, 1013726128, -1123816930, 1016976690, -1130487447]], [[1026662824, -1133824259, 1032826543, -1122576353, 1006353580], [1025366174, 1029588456, -1101716891, 1057795730, 994036599], [-1120042812, -1115441846, -1111214014, -1096510918, 1022263896], [-1130180172, 1031170075, 1018345256, -1099264918, 1018399695], [1015719028, -1127272140, 1026990823, 1024249546, 1013787095]], [[-1130363783, -1134016170, 989495211, 1016716737, -1129389261], [-1134290005, 1000959939, 1045332086, -1112926830, 1020335855], [-1140212229, -1118480404, 1042014882, -1130717815, -1105463330], [-1123379300, -1113868289, 1031930680, -1121778264, 1020964837], [-1128113320, 1022810924, -1115069829, 1019125488, -1126018687]], [[1013674543, -1150447796, 1029074708, 1018109224, 1007240192], [-1147011814, 1032995271, -1096522647, 1039639968, 1025134070], [1009511523, -1116792949, -1107587409, -1100258273, 1032409674], [-1136732645, -1123822724, 1054347330, 1032180489, 1017144321], [994784087, -1123598023, -1131723815, -1131570445, -1249483200]], [[1025343352, -1123220932, 1039334601, -1127807634, 1008196925], [-1125118228, -1124886714, -1120843997, 1021257326, 1026359379], [-1146643777, 1009203778, 1059139825, -1102804381, 1029739621], [1013933169, -1126442724, 1031550285, -1129448290, 1012093137], [1004990639, -1142088301, 1003506469, -1139922130, -1156108766]], [[-1137417166, 1017304745, -1119912505, -1124060562, 1023550508], [-1130591887, 1040323937, -1098004285, 1040605930, -1123828993], [-1166613776, -1128477369, -1103352689, -1104421643, 1026752943], [1008417618, -1128843548, 990016888, 1026912552, -1137885324], [-1138268626, -1133556205, 1027072598, -1139190687, -1144403652]], [[-1134710896, -1133824364, 1006973117, 1016379441, 1004230489], [-1125019635, 1023791035, 1034479174, 1037506599, 1024656183], [1007788114, -1130986953, 1060414092, 1057739325, 1039241605], [1013878709, -1106504200, 1057190515, 1051510874, -1125740597], [-1131071528, 1022810944, -1119365578, -1105065654, -1134682675]], [[1006528005, 992567680, -1152237035, 1029913422, 1021219452], [-1127729949, 1012573162, -1154301029, 1044867966, -1120212822], [-1142417124, 1013551143, -1100671221, 1037427947, 1034869666], [-1139519329, 1015460004, -1132764642, 1033144237, -1116139258], [991415641, -1137710679, 1018640601, 1019790294, 995988673]], [[-1138696432, 997318074, 1024430430, 1032148308, -1145623059], [-1125315483, 1021110750, -1103630031, -1096801876, -1130524004], [1017463907, -1108621371, 1046028088, -1115703995, -1114592708], [-1128931050, -1129790743, -1130797308, -1118861047, -1134680559], [1002837854, 967203364, 1009837062, -1150833326, -1149641140]], [[-1128263900, -1131990146, -1120233729, 1021072196, 1016989956], [-1125056041, 1029134798, -1109218439, 1056392254, 1010600016], [-1127259473, 1046896668, 1045216624, -1076024033, 1052626298], [1007685014, 1024028318, 1037658709, 1051132655, 1014029726], [1010374907, 1025601937, -1113145712, 991065829, 1020841240]], [[1027223024, 1025142658, 1016214173, -1117511534, 1016041782], [1013400832, 1031900576, 1015383676, 1039833116, 1035664400], [-1114659388, 1043772599, -1090874753, 1045733040, -1160337436], [1007605390, 1034918138, -1097581611, -1107695148, 1029447447], [1016255459, 1026373522, -1114955890, 1033002738, -1143992906]], [[-1123028236, 1012778852, -1130947741, 1036658947, 1008422511], [991775757, -1114712762, 1004750253, -1100645870, -1115882533], [1022332238, -1116335025, 1040200502, -1104574505, -1127790480], [1015278908, 1015197992, -1105685576, 1055270432, -1114416106], [983554732, -1122446762, 1006061883, -1108982613, 1027212818]], [[-1150194161, 1018906117, 982831395, 1016918353, -1153737161], [-1127308583, -1123901950, -1112795146, -1109250290, 1017277719], [-1136084973, 1032206453, -1103168387, -1099280791, 1015971016], [1009717035, 1020952924, -1109804693, 1026942819, -1132508035], [1010241097, -1152624195, 1014672030, 1010875149, -1140820879]], [[-1137176538, 1023461318, -1112356076, 1000915510, 990019428], [-1148351722, -1112830487, 1041526839, -1124752054, -1126897876], [1029749482, -1109786374, 1060232727, 1026840533, 1019962128], [1000865594, -1131899260, 994816372, -1142180990, -1133961313], [997370731, -1142758181, 1009555115, -1147426863, -1134890769]], [[1029999070, -1113287771, 1042376013, -1134262242, 1023446955], [-1112643911, 1042785971, -1097348321, 1022877359, -1116933012], [1032139000, -1118686725, 1025757100, 1036862872, 1034803708], [-1138741884, 1029953875, -1114724545, -1110123839, 1025843455], [1016503509, 1023579585, 1013585061, 1035024782, -1127151343]], [[1016621744, -1143513567, -1132651088, -1128649938, -1141815100], [-1133538716, 999685775, -1136173200, -1128776907, 997334046], [1007719053, 1040944947, -1094664870, 1008866009, -1164343370], [1014339633, 1021695646, -1110509485, -1110139173, -1128035606], [-1145377374, -1140062461, -1156700167, 1023328730, -1138004194]], [[-1123623101, -1118528228, 1029778528, 1023638864, -1148733120], [-1109021256, -1107026933, -1136104153, -1130982858, -1128633460], [-1107767835, 1018577755, 1045335104, 1045076035, 1025327493], [1025636170, -1121425129, 1045991493, -1115580528, -1136091894], [-1148120451, -1111070039, 993670485, 1030840890, -1109008428]], [[1034306742, 1031961563, 1035718978, -1113604913, 1033767417], [1001003557, 1034146197, -1100503201, 1035508653, 1029722013], [-1124140340, 1021447217, -1076587600, 1061311837, 1021363603], [1033795975, 1028067341, 1042477731, 1044456035, 999082143], [1019814845, -1118165504, 1038320889, 998929675, 1018686928]], [[-1127769499, -1160909632, -1114586908, 1014899422, -1124001548], [1001914838, 1010131020, 1035616999, -1114933567, -1133467384], [-1117569500, 1041814249, -1089454977, -1097694602, 1021693122], [-1138765027, -1178503052, 1016660890, -1122280766, -1129789595], [-1155399240, 1021787077, -1117413287, -1130207484, -1194184260]], [[1016480571, 1014803362, 1038123058, -1126522630, 1025192099], [1007150450, -1119364735, -1094126830, 1048769968, 1005097606], [-1135261385, -1121128801, 1058215602, -1094099137, 1036796384], [984564052, 1032854199, 1015348359, -1121055070, -1122109157], [1008280047, -1139663941, 997359744, 1007187532, 999817065]], [[994957192, -1146216503, 1019206084, 1018370718, 1009756338], [1011619735, -1114396119, 1041881358, 1041737696, -1131385383], [-1173201724, 1030949123, 990558969, 1041084942, 1015284376], [1011285406, -1127203141, 1017190371, 1014166479, 1012781017], [1006858934, 1009083322, 988183208, 1018434088, -1138510429]], [[-1142214475, 1009053166, -1114479061, 1012880003, -1151247483], [999735287, 1024267805, 1041992863, 973438827, 1035946586], [1003621198, -1114255757, 1040936144, 1048610301, -1113956746], [1016109608, 1026581284, -1107246879, 1041929027, -1124298580], [-1152980095, 1000903169, 1019695165, -1125734863, 1019391977]], [[-1134311628, 1009553646, -1107692211, 1009064276, -1114137465], [1028378515, -1113275338, 1028762083, -1106208739, -1121944585], [-1130869505, -1103408310, 1065276434, -1094580793, -1147920195], [-1123367537, 1028414557, 1044465794, -1113715584, -1105191726], [-1128186359, 1027102407, 1005640524, -1114268677, 1018208486]]], [[[1019329455, -1125615856, 1012295861, 1028408151, -1121599344], [1011164116, -1139125598, 1012634526, 1026531771, 1014809890], [-1143518808, -1115689615, 1035594778, -1111767493, -1118543433], [1034250620, -1119272369, -1126294950, -1108634853, 1030063775], [-1110506452, -1111805078, 1034860861, -1129410364, 1025448792]], [[-1148126419, -1111756443, 1033088152, 1045283701, -1112624616], [1019142718, -1125366450, 1043718324, -1089447795, 1036248444], [1010063724, -1100910809, 1056520258, -1107312897, -1102391723], [1031081378, -1113234682, 1044739589, 1038335078, 1032409006], [-1153951723, -1147768774, -1122811686, -1117588119, 1012899333]], [[-1150638594, -1130968849, 1017368311, -1127960218, 1009072281], [-1118107678, 1049709830, -1114179047, -1094579750, 1016185740], [1026498890, -1115292593, -1098677275, 1048382753, -1115742881], [1004767840, -1122293250, 1033466216, -1114506491, 1021840899], [993984892, 1010538300, -1139959039, 1019291068, -1130606201]], [[-1154879433, 1023350445, -1110522478, 1023425226, -1130720726], [-1133890860, -1109162864, 1026629914, -1127469796, -1116501223], [-1132514769, 1011212207, 1061085761, 1007338220, 1034068171], [-1154654053, -1145759710, 1013358002, 1029873364, -1114652734], [-1164400329, -1139139046, 1009118411, -1131131686, 1015201349]], [[-1163395891, 1000308760, -1123736694, 1025977170, -1133601790], [1010531404, -1131821132, -1099485865, 1050484221, 1037283533], [1001918414, -1169985342, -1114247482, 1045122191, 1028098516], [-1144211320, -1146664987, 1016709445, 1031109668, -1148423151], [1016220107, -1153347364, 1023040447, 1011868029, -1147570457]], [[1015488419, -1138596013, 1042368918, -1109701215, 1017345718], [-1123612939, -1111524551, -1116209315, -1093620819, -1140867641], [1029494955, -1121663418, -1109692103, 1065477482, -1101448547], [-1128359838, -1121562696, -1116739089, -1128651224, 1000902748], [1023635236, -1120467192, 1024866678, -1120529594, -1153099952]], [[-1129695492, 1033810398, -1124468963, -1131346856, 945836472], [996298650, -1138708075, -1097632780, -1098823679, -1123617788], [-1159461220, 1025445038, -1116909590, -1098804576, 1030226241], [-1137732266, 1025016867, -1112307555, 1033155829, -1124792636], [966827387, 986562882, -1126057851, 988100062, 1006976551]], [[1020179413, 1028302520, 1046027046, -1107118791, 1031085453], [1029155940, -1164118871, -1091384520, 1053360221, -1109874796], [-1120600804, 1053878912, -1074771531, 1052697136, 1017153009], [1033901364, -1117794216, 1061312558, 1052880497, -1131101416], [1023811267, -1132159468, 990071504, -1108760884, 1007997391]], [[1007151513, 1010359223, 1037569107, 1030850501, -1127505151], [1039460278, -1096837331, 1054392541, 1033558600, -1102812481], [1001322563, 1036098811, 1043418389, -1087456034, -1114781445], [1024832873, -1126807707, -1105720711, 1052188875, -1128031174], [1011274928, 1009643405, 1034744118, -1105642549, -1137265303]], [[999093927, 1000406664, -1135035510, 1033592170, 1000816799], [1017283881, 1013748522, -1104328100, 1051762021, -1114591322], [982982495, 1007017933, -1099620560, -1090483570, 1024255440], [-1137871303, 1033058730, -1129409441, 1029939128, -1134084138], [1017097115, 986126988, 1015114734, -1131247718, 1007570813]], [[1025746802, 1020179877, -1119522419, -1151619071, 1023703556], [-1136574521, -1118837348, 1030384556, -1091899788, 1037742798], [-1138292861, 1002645598, -1097781970, 1058857432, -1115514998], [1023424561, -1128025112, 1033579511, 1037730714, -1141731835], [-1131157249, 1009079168, -1151177502, -1117554148, -1119646263]], [[-1137516496, 1016884613, -1123541949, -1110454771, 1030054308], [1016765516, -1112736738, 1033633276, 1037250514, -1107059299], [-1125228199, 1032981069, 1046489543, -1131575775, -1139963460], [1010196811, 1022616992, 1017139041, -1111022242, 1017081954], [-1134342417, -1147815314, 1005783101, 983420151, 1015987710]], [[-1130134736, 1023180630, -1107504541, -1153248345, 1015159288], [1011201436, 1025191728, 1044470076, 983352475, 1036834914], [-1165511517, 1023359441, -1099132355, 1041059987, 1008318477], [-1151869729, 1015760012, -1096779111, -1104010428, 1025061293], [1013556034, -1144039320, 1038706382, 1027844789, 955897586]], [[-1168233268, -1113141870, 1027470944, 1015366951, -1133266669], [-1145830343, 1004708482, 1058626808, -1103458074, -1185750126], [-1130738107, -1118238251, 1035835086, -1100224100, 1028753637], [-1147446816, -1120819914, 1040068903, 1028068856, -1141689542], [-1135269198, 964637735, -1132536167, -1121309662, 977095902]], [[-1152030125, 1033795790, -1111566220, 1026332650, -1124899397], [-1129316922, 1030895624, -1089011224, -1117894626, 1030599557], [1009941853, -1116655550, 1033267829, 1026820038, -1123031936], [969354281, 1010000600, 1018843853, -1118409756, 1023793593], [-1148498162, 986661199, -1126100517, 1023762390, -1138154594]], [[-1123241947, -1137254682, 1023133552, 1029292205, 998081539], [-1128715363, -1127933093, 1053801836, 1043085053, 1038260053], [1007905326, 1033897508, 1054990109, 1064611253, 1025298835], [1024366449, -1101859224, 1058136111, -1099129502, -1116184189], [-1124716176, 1022300882, -1104295964, -1116617899, 1013908750]], [[-1139209887, -1173355849, 1013959612, 1015071063, -1128956462], [-1155010684, 1027994484, -1118622599, 1054151214, 1032725840], [-1156736713, -1120282743, -1108287681, 1052680729, -1120878707], [-1132252046, 1026904785, 1034586475, -1107686359, 1023630151], [-1136026908, -1129259424, -1126565044, 1027501211, -1132393293]], [[1007409244, -1131648834, 1031636273, -1125104332, 1000518032], [1012872168, 1018455306, 1046787332, 1050123562, 1012864209], [1003687040, 1017942007, 1033074621, 1024238763, -1121217214], [1007890073, 1002666820, 1029374853, 1016297643, 1007610273], [-1135126041, -1135919159, -1146624850, -1131474938, -1148744909]], [[-1123237331, -1126811206, -1106746362, 991257803, -1125882432], [-1118994226, 1042155250, -1090178101, -1102700884, 1050295963], [-1130223454, 1050332549, -1103813064, 1062302105, -1155314146], [-1133482705, -1106720803, -1104887340, -1095381563, 1021651929], [994206803, 1030151564, 1024437128, 1041849515, 978577864]], [[998245822, -1148896894, -1140463077, -1106421601, 1028314881], [-1118696594, -1121376004, 1042475053, -1119675489, 1020440051], [-1119279185, 1051423874, -1089034870, 1048086448, 1046983928], [1022526728, -1121914990, 1032101565, 1035850368, -1121831717], [-1115503308, 1032868257, -1110600844, -1140773918, -1131733266]], [[-1138559817, 1009075127, -1108118418, -1130910046, 1012409563], [1022385899, -1123938244, -1132356828, 1058849995, -1108926669], [1011152072, -1128007618, 1052583886, -1086184756, 1040244241], [-1142131213, -1124561906, -1120380852, -1148169097, -1133863288], [1025707052, -1149392304, 1026113560, 1032400295, 1003228041]], [[1016578992, -1165805169, 1018067300, 1023287874, -1163050943], [-1145483729, 1011919709, 1042469647, 1041929933, 997079445], [-1119942121, 1028196205, 1030787029, 1044857758, 1008922226], [-1141678253, -1129044483, 1009614631, -1118114883, -1128838444], [1015298098, -1135849418, -1131562758, 1018994125, -1131200945]], [[1016935589, -1131356713, 1037600512, -1143096076, 1016359339], [-1125112100, 1033030467, -1089745013, 1036285065, -1164405264], [1023102452, -1112865216, -1096822490, -1114262301, -1122909265], [1000795743, -1128448626, 1041870858, 1017435370, 1011874267], [995023239, -1135987834, -1129147446, -1137597147, -1160213848]], [[-1170700291, 1024856394, -1155475465, 1018420931, -1123208415], [-1115074826, 1037747999, 1019092784, -1112614911, 1019429062], [1025271002, -1104809038, -1096424803, 1049818572, -1115085061], [-1119941396, 1013629900, 1039176554, -1105691057, 1025992214], [-1131217881, -1131586050, -1121934272, 1009044831, -1126818633]], [[973888868, 1027569206, -1117750301, 1018466190, 995993622], [-1156839309, -1141740373, -1108315735, -1113817232, -1119856582], [-1124963569, 1030327504, -1096571646, -1102575943, -1125794212], [1008379422, 1020974312, -1107628873, 1038443091, 1006151822], [-1155395307, 978741286, 1017002863, -1132650964, 983299148]], [[1018302173, -1113411426, -1118643425, 1018274015, -1115379995], [-1114230206, -1118802943, 1043006531, 1034587764, 1027560628], [1016788429, -1138156283, 1042961079, 1023032718, 1021877391], [-1116760235, -1112942460, -1117837497, 1041073799, -1134282558], [-1108100924, 986937271, -1125274928, 1020156989, -1115090940]], [[-1136621944, -1131047931, -1114649225, 1035165881, -1120440500], [1002416814, 1033190573, 1058478379, -1095379433, 1001630338], [-1134696490, -1097056121, 1055893999, -1105725145, 1040321555], [-1123887332, 1024758400, -1097708909, -1125575635, -1118242632], [-1136159914, 1028618068, -1112280989, 1023532635, 1015173086]], [[-1147631296, 1004806704, -1146778987, -1120325047, 1024770065], [-1133863735, 1036711423, -1093290969, -1112397293, 1023987346], [-1137087468, 1042586694, 1032600080, -1105915362, 1006601080], [1007433346, 1010081885, -1106472132, -1150439932, -1138756157], [-1179975587, -1145035211, 1021923677, 990566873, 955328816]], [[1009964917, -1120535559, -1109603729, 1030497395, -1129200332], [-1124785829, -1123521461, 1051401500, -1104145789, 1023577050], [1004872874, -1109600169, 1055746294, -1103692274, -1139250164], [-1123431659, 1014854967, -1096890330, -1103541065, 1017076168], [-1136482504, 1019776455, -1152001673, 1027640096, -1144880137]], [[1006822007, -1132477060, 1029549685, 1005886300, -1130188248], [985823132, -1120244805, 1054072325, 1053202509, -1123018750], [-1136283261, 1024503642, -1104237762, -1102746678, 1021234681], [1011824650, -1122900222, -1145899777, 1028838982, -1130706332], [-1142996746, 1015784323, 1025640098, -1126930813, 989057542]], [[-1140748352, 966159308, -1133889215, 1024435151, -1128653539], [-1133564783, -1157210872, -1102941078, -1116167075, -1127540266], [969557212, 1035872576, -1134289831, -1096644930, 1040182662], [-1127415355, -1125178889, 1025583504, 1010942815, -1129899632], [1016462074, 1003653435, -1130553929, 1023777720, 995362683]], [[1022759852, -1112758422, 1046159121, -1127513010, -1118032738], [1011024760, 1026892276, -1094709314, -1081500746, 1049631242], [1029291904, -1101279998, 1057384624, 1062824031, -1099323108], [-1122852031, 1011894702, 1057933504, -1110439705, -1118520726], [-1131461540, -1123459836, -1100686551, -1130840460, 993881113]]], [[[-1113988631, 1018652271, 1023881642, 1035762128, -1130451376], [-1138382756, -1119625753, 1016019945, 1027643212, -1122609424], [1008878678, 983696827, -1112508979, 1016199470, -1140495497], [-1127811597, 1019256954, -1109319318, -1113696866, -1130610038], [1000926231, 1016607658, 1021138921, 1008603310, -1118490189]], [[-1126389126, 1017135435, 1035841518, -1109946614, 1030504619], [-1119261762, 992232323, -1090044647, 1035789291, -1121990820], [1029966303, -1110926930, 1061119297, 1027235382, -1125345547], [-1122213672, 1038203722, -1091434746, 1040398283, 1017944258], [-1192112433, -1155631795, -1125872171, 1026422342, -1133130290]], [[-1130924634, 1012976059, -1118843286, 1017891410, -1153719191], [1025577631, -1104258136, 1026897787, 1046411655, -1109536162], [-1123132746, -1134492765, 1056902906, -1123135438, 1013943993], [994488107, 1030076683, -1111973074, -1133779596, 1022923504], [990294538, -1138236756, 1007821243, -1130970885, 1007499770]], [[-1135257756, -1120502667, 1007876290, -1118081389, 1012401518], [1010733820, 1046624155, 1041793195, 1017707825, 1024238619], [1019337367, -1100270592, -1097738093, -1110891701, -1140021127], [1001983357, -1121547395, -1099465489, 1024501651, 1022715650], [1003311620, 1021756552, -1143365359, 1013937996, 986617351]], [[982848513, 982567422, -1122811518, -1134576086, 1001592842], [-1146358812, 1014446054, 1044505269, -1103521508, 1017390024], [997336126, 1034887658, -1105490199, -1093163784, 950000850], [1002767612, -1123450592, 1031849998, -1128481250, 995198014], [-1135270315, -1155814178, -1125519160, -1127550761, 1016007984]], [[-1117703539, -1123000387, -1108568114, 984580364, -1149569792], [1032511910, 1029949066, 1039435167, 1050293257, -1108410235], [-1138973772, 1040542832, -1089903770, 1036016402, 1038310200], [1020941543, -1126931726, 1032591613, -1105727321, 1032910135], [-1122341900, 1035998459, -1115379299, 1024906792, -1121245925]], [[1006880046, -1121909238, 1031667448, 1010032839, -1152106963], [997107641, 1023754973, 1050278174, -1134178396, 1019646821], [-1142878262, -1133687010, 1050142695, 1043130342, 990826998], [-1141514052, -1139702290, 1034561749, -1113305915, 1012398751], [-1148686221, 1019828295, 1019139991, -1155844691, -1158298603]], [[-1129890391, -1110563762, -1105525000, 1036969118, -1127510455], [-1123997712, 1042824389, 1032784395, 1041732867, -1118723558], [1041380115, -1114195699, -1084249032, 1062642282, -1136940521], [-1128878896, -1095896711, 1044608787, 1043100129, -1121779204], [-1133044699, -1139811246, -1117956433, 1033239168, -1128236928]], [[991748191, -1117835081, -1105316595, 1037753025, 1014708176], [-1129552741, 1041346497, -1097623675, 1034084835, -1122257402], [-1121097728, 1020846090, 1039181821, -1109644321, 1047852859], [-1128132000, -1123478797, 1041613939, -1136673227, -1115313367], [-1139501180, -1183917407, -1119166311, 1037133746, -1122074729]], [[994963555, 1011146094, -1146645277, 1025171828, -1129214357], [1006105184, -1136493137, -1104802955, -1129402792, 1009798377], [-1129854305, 1025723486, 1054414623, -1121598832, 1024220191], [-1143320287, -1138387777, 1040285938, -1138425143, -1124019409], [-1142781182, -1132017849, 1019965323, -1148759021, -1138075110]], [[-1131474380, 1020888576, 1012128095, -1117389638, 1025478368], [-1157615413, -1138228917, -1117592588, 1010406770, 1006658795], [-1123836865, 1026934999, 1057954950, 1013861321, -1108045736], [-1167728354, 1002521571, -1096737990, -1133605155, -1133997247], [-1137380174, -1134422818, -1139310407, 1008574321, -1131686935]], [[1014236393, -1134574536, -1122954726, 1033710065, -1114985699], [1009796141, -1120470720, 1055768158, -1112613002, 1028520411], [-1147302414, -1129752070, -1084954101, 1042026169, 1034265375], [-1156263861, 1019673996, 1016899249, 1025701380, -1123349433], [-1148511160, -1131784919, 1017906939, -1124975350, 1022010031]], [[1009776004, 1006874988, 1039682465, -1126083481, -1133352684], [1007080669, -1115422034, 1016560664, -1110886878, 981843838], [-1123971509, -1122863742, -1105897725, 1012005592, -1122460749], [1020856501, 1033433552, 1050632738, 1027526537, -1122965080], [-1127155883, -1144280397, -1154322540, -1133262020, -1139860786]], [[1019182909, 1024101520, 1002346069, -1169862073, 998575883], [-1130848888, -1122814716, -1098089165, 1032046325, -1152417423], [1018465220, -1105622415, -1104075690, 1050318302, -1111250288], [1007225522, 1026088698, -1111198520, 961645170, -1142532926], [999962949, -1142514130, -1141085184, 1018329172, 1006850498]], [[-1145780700, -1137174011, 1024041776, -1127196677, 1001739758], [1011708636, -1132994290, 1053258871, -1106447868, 1025756602], [1005580108, 1029056309, 1042445907, -1174481736, -1146481413], [1000432233, 1018254969, -1125817322, 1020453818, -1131290911], [1014787157, 1009203016, -1151835778, -1147566206, 1001432733]], [[-1140781829, -1144520689, 1017850237, 1001213140, -1181872840], [-1131008221, 1031730639, 1035583336, 1036274583, 1001666781], [-1171171264, 1039372297, 1063918621, 1049110144, 1027271075], [-1114462132, 1041523700, 1057626901, 1030684218, -1134472500], [-1143319262, 1024207137, -1111408540, -1110988221, -1151131017]], [[991742406, 1024589866, 1026680183, -1125452301, 1012707288], [-1162486480, -1116375472, -1106472261, -1104844004, 1023827075], [-1164330635, 1031202687, -1131070857, -1093010890, 1028937171], [990681997, -1118739356, -1117626375, 1021352113, 1024572306], [1018333327, 1000088578, -1139310077, -1123365003, 1017256173]], [[991761624, -1146900503, 1026260451, 1023968841, 1006885565], [-1143745359, 1004774371, -1094766151, -1124053510, -1126253000], [-1144610792, -1140355164, -1094187901, 1036100197, 996850872], [998557752, -1118783642, -1113410275, 1013564243, -1140546477], [995398436, 1003973248, -1137504619, 1005439017, 998315394]], [[-1140755440, -1118715689, 1029017720, -1111497893, 1018593532], [-1122012574, 1025795979, 1051615573, -1102812139, 1018217499], [-1137749467, -1130713804, -1103584596, -1115617321, -1100735169], [1022969804, 1021961216, 1053725255, 1028659643, -1133466767], [1011938463, -1115438291, 998823293, -1119279275, 1023274797]], [[1028299620, 1031378676, -1106337403, 1030298318, -1125312063], [1026789266, -1120339714, 1047334685, -1159287904, -1134671544], [-1131377183, -1121793906, 1051439534, -1092651768, 1031961231], [-1166467495, -1121493058, -1102932079, -1144456563, -1132784477], [1021219616, -1115597474, 1035772934, -1114942396, 1028856151]], [[986726414, -1125159953, 1031106424, 1031415193, -1123109179], [-1133954580, 1026071526, 1019135039, -1101474570, 1032527192], [1023556526, 1039987321, -1091928777, 1024233435, -1139450717], [-1133493365, -1135122504, 1044769221, -1122764654, 1015579808], [-1133023041, 1023063499, -1134960043, 1016888439, -1151891801]], [[-1139150483, 1014316014, -1142372956, 1020318511, -1139775018], [-1139531659, -1123949953, -1101206719, -1132644394, 1017086263], [1026408076, 994696149, -1090234257, 1030497746, 1010690892], [1025981233, -1124311446, -1129299437, -1144114227, -1127590348], [-1138206916, 1016894610, -1135555797, 1005595980, 1003874985]], [[-1146010813, -1129725643, -1116847669, 1006650735, -1141109918], [1023428040, -1110147897, 1040893136, -1122010448, 1014588953], [-1219226904, 1050279320, 1035311358, 1038689717, 1000016703], [-1135945072, 1001510546, -1180587256, -1126223762, -1136370697], [-1143174476, -1171252762, -1135857186, 999682377, -1170438770]], [[990018043, 1007504429, 1040789377, -1113016247, 1033031406], [-1130585926, -1125562736, -1095883865, 1037499206, -1133801185], [-1130858708, 1035369480, 1044052693, 1005733894, 1004034510], [1022968197, -1114912913, 1048419679, -1109776354, 1027090647], [1021947897, -1175746419, -1120986212, 1009191152, -1148324713]], [[997048213, 1005144976, -1125012636, -1130529909, 1010794114], [-1141200067, -1135130948, -1126621342, 1000127396, -1144575870], [-1131143770, 1004105101, 1041059937, -1103303989, 1011547635], [1013764116, -1125902429, -1105324194, -1122327407, 1019477064], [-1148210348, -1129522266, 1013032286, 1013779199, -1139634123]], [[-1113453512, -1133592182, -1115138129, 1039246817, -1120180114], [-1126706618, -1104148544, -1159134153, -1129192813, -1126074516], [-1136207211, 1001939601, 1049455929, 1036970462, -1109374239], [1027269727, 1017318242, 1040447486, 1024791259, -1124051834], [-1121266942, -1111322868, -1122298635, 1021741299, 1013773625]], [[1027286208, 1038567823, -1124771328, 1023589118, -1148795186], [-1143867018, -1107108020, -1108755339, -1129390628, 1019092980], [-1127702737, 1034975229, -1098736563, -1100123539, 1027892153], [1011081964, 1042628040, 1041549947, 1018332164, 1011677505], [-1130911090, 1031220852, 1037026858, -1116786988, 997188665]], [[-1131980550, -1130653018, 1021529062, -1133547241, 994175954], [-1163060603, 1019003140, 1034287417, 1031245960, -1123461904], [-1124031896, -1120408011, 1056832069, -1152483942, -1119140261], [-1179403919, -1118730793, -1123233292, 1032210291, -1137902728], [-1140830340, -1133927059, 1009326018, 992529852, 981027194]], [[-1161666879, 1033378980, 1033807066, -1128844479, -1162829271], [1021075290, -1111863466, -1107879008, -1114224938, 1027492215], [-1119738128, 1015801688, 1059984972, -1096031613, -1139013603], [995963713, 1043763578, -1123871659, -1105370079, 1022436219], [1009152910, -1130776226, 1022855833, -1124962477, 1011614987]], [[982590432, 991579795, -1119328230, 1017317566, 1012366810], [-1141572597, 1025172639, -1097077550, -1119883171, 1028186565], [1013098632, -1114748249, -1120515184, -1135821490, 1018805380], [999792877, 1008945251, -1115123891, 1015754013, 1003770026], [977536461, -1140945422, 1015030593, 999646038, 992838788]], [[957423206, -1129526621, -1119345437, 1023333221, -1127736303], [1000934418, 1030090940, 1042992177, -1123877188, 1018813412], [-1128619658, -1106279277, 1058913415, -1106796921, -1146438870], [1018751778, -1123105063, 1015711562, 1011838533, 1016380430], [994983549, 1017341681, -1125255330, 1018999653, -1142376408]], [[-1120325873, 1010773827, -1121748937, -1117273398, -1147096775], [1032607778, -1104112877, -1099952549, 1023360893, -1110267038], [-1111475219, 1054372843, 1056539136, 1017343402, -1109008109], [-1114060042, 1017199550, -1123259120, -1106831347, 1013401876], [999143311, 1037949701, -1107561363, -1138983022, -1145053079]]], [[[1022103416, 1027858257, 1025673976, 1000697554, -1119643332], [-1138793147, -1113881571, -1152092413, 1016655117, -1148109659], [-1120141365, 1028108036, 1024987314, 1028557418, 1001857477], [1018605792, 1025540257, -1111594431, -1113096659, 1032875108], [-1117210146, 1024808544, 1028681303, 1014031500, -1130961873]], [[-1130151253, 1025310314, 1025926527, -1117357707, 1031918089], [1016023653, 1043541015, 1045153997, 1032643189, -1133635232], [1023591869, 1035292725, -1075450215, 1052818102, 1023129664], [1033102009, 1035534216, 1051276885, 1036955485, 1027327708], [1024217561, 1017479263, -1106872911, 1036548177, 990770097]], [[1020447662, -1129319565, 1029585165, 1027970836, -1129684342], [-1135157507, -1101520352, 1055018048, 1046509741, -1115476022], [-1172106372, 1037614957, -1105711120, -1104695350, 1031325744], [974675813, 1024442832, 970947619, 1028019195, -1136894899], [-1144118891, 1014730859, -1127562161, -1202799600, 1016766463]], [[1006872069, 1003453829, -1121449209, -1124222492, 1010046221], [-1130788841, -1105830062, -1189360113, -1132103926, -1158423771], [985940490, 1045333092, 1055705090, 1032361352, 1011988811], [-1124375411, 1020006019, 1031435975, -1114601056, 1017304728], [-1162540698, -1130404833, 1014752082, 1011784832, -1139286062]], [[-1139514203, -1145327652, -1124628099, -1124002554, 1012605820], [-1144808363, 1034259319, -1113314444, -1095033486, 1016482952], [-1140118994, 1020215778, -1138979082, -1103089576, -1144177703], [1012690997, -1162756225, -1113633221, -1130930026, 1019835020], [-1145519634, 1015428298, 1023920562, -1128598313, 996844677]], [[1004551757, 1036619740, -1128550015, 1033526638, -1128884474], [-1119038513, 1020246343, -1090204266, 1057040105, -1112196171], [1021350195, 1026639076, 1032224188, -1089672456, 1050448815], [1015923683, -1126087795, -1116370525, 1049090845, -1111398036], [-1148711298, 995426826, -1131022178, 993310938, 1012477661]], [[-1140406437, -1130409382, 1025734191, 1009838407, 1012335389], [-1146783232, 1028079864, 1048686000, 1036361713, -1139978446], [-1142868390, 994684821, 1049533676, 1023241177, -1145899435], [988890983, -1135855823, 1021236228, -1124329852, 1023132710], [982295107, -1132132985, 1028668078, -1148781522, -1152443717]], [[1016804273, 1025964535, 1023763694, 1035964161, -1137749461], [-1139359404, 1005258209, -1082918453, 1056557937, 1024144117], [-1127944683, -1097668519, -1089523600, 1059006641, -1118256480], [1022174220, 1026651793, 1054622027, 1042171156, 989085404], [-1129049393, -1131482358, -1123082079, -1120075506, 1019703240]], [[-1154859695, -1120075695, 1044933848, 1028608313, 996844230], [1011584866, 1043619462, -1090405119, 1046941196, 1036790681], [-1121224297, 1046373548, -1097182601, -1093998296, 1041734230], [999543452, -1119287156, 1034497435, 1048295922, -1117684536], [1007130322, -1149802813, 994108836, -1110000002, 1023737046]], [[-1167104327, -1129374866, 1037689838, -1132861988, -1148387063], [-1159856836, 1001720860, 1022086871, -1111883908, 1001610614], [-1132091595, -1130814447, 1028782467, -1112843077, -1123338844], [-1135615115, -1149896575, -1120103314, 1029528800, -1121859613], [-1151382254, 1011566081, 1020116003, -1118934660, 1023245788]], [[-1148556838, 1020019663, -1121083482, -1139719707, 974267848], [-1134927433, -1148080970, 1028982827, -1128552330, -1118592049], [1028337875, 995618030, -1102032069, 1007849781, 1036677141], [-1139445917, 1027492450, 1043176776, 1014967593, -1122156999], [-1129244504, 1020477564, -1114524146, -1125207298, -1152198809]], [[989386126, 999117107, -1119230777, -1137168126, 969532398], [998480815, 1027850490, -1089816190, 1044985464, 1029143640], [991918582, -1115040643, 1058763761, -1128831511, 1025120060], [1010302909, -1133230029, -1103851255, 1026374462, -1143748304], [1008102253, -1136408351, 1023932637, -1120190519, 1019077158]], [[-1141560203, -1137212799, -1114110825, -1123931045, 1009170572], [1011899987, 1036534585, 1054276333, -1110243620, -1121323740], [1009509772, -1130784743, -1113853308, 1036512336, -1128959571], [1015155618, -1111061300, -1095262962, 1012972010, -1123085252], [1008948534, 1027247880, 1036105604, 1009169488, 1001036304]], [[-1127858083, 1015959153, -1108386803, 1015079837, -1133729490], [1026610161, -1107082241, -1101058405, 1041451527, -1115079226], [-1173728277, -1124093147, -1096067884, 1046203405, -1109643015], [-1147819562, -1140910416, 1016668290, -1141413265, 1013240953], [-1140106652, -1137648301, -1123601233, -1129329918, -1165890259]], [[1007700068, -1122786917, 1035697136, -1118823387, 1022467147], [-1145218408, 1032385634, 1057074487, -1102269853, 1001980388], [990584673, 1018582815, -1108876106, 1034753671, -1147204315], [-1150772693, 1019370318, -1130731351, -1133971181, 1008280820], [1012528233, 1007360257, -1132217148, 1023121454, -1135392912]], [[-1127968598, 1016752017, 1024582419, 1015524082, 1001905457], [-1141593531, 1038463120, 1050873243, 1044440472, 1018056888], [-1118867508, 1043161579, 1065728923, 1050066994, 1021249688], [-1132331277, 1030673088, 1045320987, -1105788006, -1129940830], [-1151055907, -1126017922, -1110063550, -1128642245, -1142487212]], [[1016386889, -1132120091, -1125743332, -1117024752, 1015107077], [1009765142, 1019133890, 1023574634, -1097786382, 1033670803], [1012120500, 1013383040, 1029852731, -1104119128, 1025773054], [1015670657, -1127850026, -1132024244, -1127201024, 1010591054], [-1139509162, 981618615, -1122300528, 1021768135, -1132057880]], [[991980679, -1131473737, 1018777044, -1136346078, -1139153554], [1017698491, -1121576626, 1056323927, 1042027452, 1022158070], [999018284, 1010118880, -1109154991, -1127211911, 1021077392], [1001147155, 1012453971, 1021427384, 1025517073, 994454702], [-1160476336, -1129468435, -1125527063, 992363596, -1153286199]], [[-1138508853, -1115900539, -1120137015, -1114857203, -1153632175], [-1130177571, -1146523052, 1052696702, -1089310781, -1121993822], [-1123676508, -1106998770, 1059806196, 1055279119, -1102979653], [-1126284878, -1118854652, -1108492680, -1097517566, 1022727353], [-1137776828, 1032103668, 1035001843, 1033799017, -1148184456]], [[1018448609, -1112872676, 1033477592, 1016207471, -1113317185], [-1125835266, -1122438010, -1093368615, 1006965263, -1122861552], [1024548981, -1107496105, 1066914467, -1095169272, -1162417842], [-1118075454, -1132795408, 1043309763, -1107093556, 1027643666], [-1132905264, -1122598862, -1124895884, -1111541118, -1134706916]], [[-1130255283, 1007005665, -1122854919, -1124283969, 1019232043], [-1145799858, 1037649000, 1041413819, -1102174170, 1038550314], [-1116831710, -1148323540, 1043232855, 1049799549, -1105253070], [1019729975, 1031838987, -1107052895, -1101444533, 1035037963], [1015630568, -1159788188, 1029876721, 1032711905, -1117061869]], [[1022167962, -1134202489, 1019789710, 1012497088, 1005780039], [1005810165, 1007668497, 1051521606, 1028557862, -1117885144], [-1130519429, -1113262843, 1055566424, -1106113203, 1027093427], [-1121773273, 1023955615, -1116017963, 995390220, -1131146527], [-1173524568, -1194311768, 1006777134, -1133900616, -1196676962]], [[1009848297, 1032111326, -1148099609, 1015062999, -1144042911], [-1136337388, 991537836, -1102606558, -1111807634, 1015084365], [-1134581872, -1105017420, -1097878976, 1021150319, -1126660985], [1016065471, 1029046861, 1025996827, 1022056723, 1011987706], [-1159288168, -1135048383, -1125203649, -1148751267, 979257833]], [[-1130092927, 1026909509, -1115213806, 1021205749, 955052632], [1029174215, -1097707651, 1058398030, -1122171701, -1140257009], [-1125181519, 1047356350, -1084453536, -1106609178, 1033876466], [1000809321, -1117086508, 1034539913, 1040846009, -1118240331], [-1123152224, -1146151408, -1138988460, -1120050930, 1022123959]], [[989445256, -1130962317, 1026921004, -1130095710, 987695494], [999704484, -1121623181, -1106991420, -1114908475, -1144857285], [1005430291, -1113606545, -1107718078, -1102569638, 996203866], [-1130929634, 1002358769, -1123995563, 1030908565, -1141847725], [990311731, 982328667, 1015763164, -1130276819, 1016257610]], [[-1108246077, -1112911932, -1128549201, 1007590143, -1122110852], [1027537438, -1121761682, 1043371366, 1039328526, 1027535912], [-1129093540, 1017779039, 1048206450, 1041050713, -1110359762], [-1117898116, -1113544155, -1174949509, -1118801403, -1121925327], [-1125942605, -1125842051, -1116023364, -1165731779, -1114736571]], [[-1122877018, -1115425752, 1033505532, -1124051863, -1127196800], [1012505300, 1024718063, 1047664247, -1113412198, -1115153460], [1024137981, 1044820519, 1057533557, -1094869829, 1029855003], [-1117030376, -1114495961, -1101299518, -1123880597, -1121298711], [1021822348, 994358656, -1140209549, -1127459432, -1130955330]], [[1019089997, 1017920703, 1015715870, 985605384, 1003369808], [-1127172408, -1119207604, 1052783734, 1030859038, -1140843310], [1025970871, -1112097953, 1051863863, 1041366599, -1125751203], [-1129115511, 1025712681, 1015456460, -1128797136, 999663700], [1004483916, -1132024726, 1031457652, 1025139886, 1009786167]], [[-1134556013, -1123820876, 1010993978, -1121014839, 998213275], [1000924399, 1029339120, 1050203414, -1102446018, -1131111610], [-1123127361, 1028500547, 1052159882, -1095975438, 1001911817], [-1173131918, -1126896434, -1102316076, -1107346175, 1017493580], [998541286, 1017620987, 1018074399, 1016157888, -1128144130]], [[-1173738324, 1019365597, -1122379867, 996856742, 1016656237], [1007468472, -1119324488, -1097065741, -1106858775, 1024347538], [-1136018738, -1126836283, -1128826416, 1007905002, -1138857335], [-1177359739, 998898766, -1119887929, 1009933512, 1009578940], [1003096242, -1129699840, 1002693908, -1136548868, 1003533705]], [[-1165901562, -1144352003, 1024817870, -1115582361, 1018400435], [984990438, -1146430124, -1096007082, 1034358087, -1121101946], [1004300552, 1040626365, -1093202569, 1032116965, 1004996271], [-1126543199, -1124531449, 1040674801, -1110195785, 1019551368], [1009686561, -1146253386, -1181595504, 1018726499, -1189640965]], [[1020992840, -1119050442, 1041236350, 1013652018, -1112915176], [-1121045670, 1035490868, -1084125063, 1036380369, -1114290651], [-1141975779, 1036397819, 1058575852, -1108227125, 971139406], [-1118768113, 1042581547, 1053514671, -1110637644, -1154586300], [-1165289568, -1112957002, -1102713839, 1036392963, -1125710005]]]], "b": [964080731, -1163452400, 967102985, -1174093309]}]