[{"t": "Conv2D", "o": 44, "w": [[[[1021038183, 1024226066, -1097768824, 1035229405, -1133721947], [1033217677, -1106512472, 1038604680, 1033365944, 1028251450], [-1102336866, 1058696820, -1068941111, 1049951115, -1108509295], [1042827603, -1106119314, 1074681872, 1018783288, 1010240853], [990069773, -1101383058, 1052098983, -1107059988, 1037310451]]], [[[-1097235713, 1060435055, -1082463023, -1089782431, 1058125905], [1051296343, -1102459419, -1091693566, -1078636187, 1057162991], [1031477966, -1086087363, 1070941914, 1068244294, -1082434907], [-1119661644, 1042550325, 1037656380, 1050756137, -1126376457], [-1120653699, 1029336455, -1095770269, 1052637304, -1107003642]]], [[[-1107223331, 1035775032, 1014782501, 1028676656, -1105655693], [1043556956, -1092957940, 1047165326, -1105243175, 1050671857], [-1119016667, 1059157032, 1047970420, -1114590339, -1097521750], [-1098466496, 1042259144, -1087038445, -1101057497, 1021214402], [1025900072, -1122117037, 1049902557, -1100533516, 1041325503]]], [[[1033631907, -1121148335, 1018844650, 1023808432, 1022205862], [-1109659261, 1018636737, 1045993419, -1123226742, -1105819674], [-1108715605, 1050751662, -1076121079, -1088504209, 1056755604], [1024623475, -1111487353, -1087373378, 1075907676, -1100310981], [1030291117, -1103600097, 1051531993, 1049433663, -1095051633]]], [[[1031609136, 1024695414, -1140368920, -1103132043, 1027803237], [-1108202584, 1057584924, 1005207130, -1086439378, 1060883577], [1044900537, -1078216628, 1074976716, -1088906407, -1091841688], [-1102311979, 1059566820, -1078917129, 1066945062, -1098205528], [1004492352, 1050726296, -1081886410, 1053341625, 990031888]]], [[[1017186496, 1039220492, -1110947640, -1098499079, 1040459163], [-1114078964, -1098331376, -1073177241, 1035164572, -1139130076], [1041067243, -1096879403, 1068443059, 1068092941, -1107243581], [-1121960667, 1003055666, 1039645294, -1096366163, 1043452818], [-1120447549, 1031508755, 1042662976, 999629439, -1111873585]]], [[[1047382400, -1087384862, 1059718051, -1088846460, 1047454100], [-1106500001, 1057506010, 1024125553, -1110077157, -1092307871], [-1089643407, 1058286502, 1061855251, 1062645994, 1009809656], [-1107975871, -1077785818, 1055760707, -1094972481, 1041069484], [1055150886, -1090328873, 1021578778, 1042999695, -1109846869]]], [[[1036944336, 1052482335, -1088827722, -1093157934, 1053073768], [-1087051361, 1026369015, 1069264908, -1114345583, -1091202916], [1059978836, -1080871608, -1096141965, 1067248546, -1093334214], [1059667845, -1162192594, -1078105992, 1043279460, 1050101351], [-1088504222, 1057543031, 1063522582, -1088264893, 1038956644]]], [[[1003137980, -1091852633, 1009876836, 1049093085, 1042141850], [-1088725405, 1063647659, 1062841935, -1082936637, 1045372077], [-1096740745, 1073700518, -1071479683, 1057855793, -1093747818], [1063757759, -1077402106, 1069363245, 1059125943, 1036894059], [-1088524235, 1059297418, -1114791675, -1091402784, -1098785513]]], [[[1043441241, 1036017084, -1093124447, 1058422973, 1035981085], [-1096829761, -1109152405, -1087993661, 1056340297, 1045098053], [1058792280, -1094078196, 1065823670, -1080716441, -1114494111], [-1104956005, -1086033333, 1060700770, -1107550967, 1051805509], [1045695836, 1023481745, -1091619188, 1029311071, 1032514078]]], [[[1026362923, -1097261297, 1048591232, 1020171420, 1024838934], [-1105424115, 1055185585, 1056891181, -1090241665, -1098718909], [1066912451, -1075923102, -1096095499, 1052269781, 1052909261], [-1101363443, 1059414905, 1046293629, -1098908677, -1096814559], [1044684870, -1096842871, -1103231231, 1032664048, 1051107258]]], [[[1002502170, 1019053243, -1121678025, 1023659653, -1135744007], [-1118129258, 1038846261, -1131815277, 1025847957, -1118016030], [1036711452, -1114820794, 1076371402, -1070953986, -1132326732], [-1122662370, 1038332851, -1119380819, 1033210133, -1110201386], [1019825971, -1114232921, 1030257219, -1123474037, 1008727002]]], [[[1015955096, -1102723646, -1081520658, 1073392920, -1084235841], [-1118484981, 1061281081, -1083519532, -1084049679, 1066755952], [-1104024827, 1040885121, 1068320561, -1081217111, -1098824161], [1026593482, -1096345661, 1046173126, 1043935943, -1130005353], [1045318018, -1093313620, 1053855859, -1107844366, -1126839013]]], [[[-1123456818, 1034437719, -1104688337, -1126085847, -1114713758], [-1143299022, -1097793166, -1099157184, -1093970166, 1014318376], [-1113415151, 1056529378, 1074529922, -1082656035, -1102980496], [1031620936, 1021282697, -1105340761, 1022935371, 1024239100], [-1119016952, -1131554795, -1116206040, -1139857574, 961648830]]], [[[-1137328741, 1040216931, 1055868638, 1021120317, -1102614948], [-1104935633, 1064376962, 1050404960, -1082379823, 1040813644], [1050905634, -1090708791, -1080960164, 1056330564, 1050623900], [-1105789218, -1101971897, -1110166248, 1042709004, 1047704940], [1035875690, -1117402998, 1046476488, -1089436540, 1048933446]]], [[[1032590576, -1120165469, 1040587872, -1098708059, 1002147624], [-1110442911, 1034253342, 1061642950, -1093420484, -1103325958], [-1090582505, 1034974527, 1071751896, -1090434631, 1019166909], [1053770078, 1023731682, -1091061199, -1083501213, 1045000840], [-1109805326, -1098654498, 1051657904, 1045805638, -1095633210]]], [[[-1097466827, -1103729909, 1060674158, 1057184562, -1123647458], [-1102010705, -1082220016, 998743171, 1045352456, -1093918374], [1059142497, 1059372989, -1088184173, 1058054650, -1086391588], [1052937356, 1033893535, 1035533009, -1089133246, 1060992015], [-1098975458, 1025429846, -1085290158, 1063483579, -1095364795]]], [[[-1117202840, 1051950189, -1080218153, -1086177468, 1058037162], [-1111550536, 1058294075, -1093466191, 1034368569, 1034582089], [1026623293, 1056921236, -1103549783, 1062984679, -1096312259], [-1122815207, -1109939031, -1088549360, 1064515436, -1115477790], [1037472173, -1123570176, -1098429119, 1044204724, -1104846421]]], [[[-1112146438, -1118799592, 1047956498, 1048950499, -1094200233], [1047885543, -1105871078, 1057437001, 1032809080, 1051502217], [-1107311822, -1104131561, -1123607065, 1055040159, 1043691624], [1018821700, 1050936500, 1020895378, 1050881004, 1041892155], [1041711549, -1097414841, -1104431123, 1045250169, -1107637936]]], [[[-1105050274, -1117683057, -1088999046, 1056408865, 1043746294], [1051983832, 1014155032, 1067720099, -1120280065, -1087123314], [1043448078, -1083887419, -1091583290, 1057660918, -1094569615], [-1103634670, -1089607719, 1062838867, 1006379305, 1045109369], [-1100943524, 1054412059, 1040800443, -1092193542, 1030782314]]], [[[1006534910, -1107802279, -1110194926, 1057466850, -1101711453], [-1110953912, 1064052389, -1081451621, -1117105641, -1098643579], [-1148468397, -1079142006, 1075179808, 1037945479, 1045013795], [1041529261, 1042802912, 1063196064, -1078882033, 1049921280], [-1114214004, 1032515712, -1121461640, -1102877556, 1043661372]]], [[[-1121161549, 1034161283, -1111703817, 1032030520, -1130327297], [1004642384, -1106753630, 1032258172, -1104981555, 1030226078], [1009602863, 1028338940, -1071664590, 1024914167, -1119060938], [1027154365, 1029175594, 1075668532, 1024179744, -1134387540], [-1123551187, 998564924, 1015134187, 1032313361, 1016835454]]], [[[1042678325, -1103394122, -1110735936, 1019472696, -1130814976], [-1120802033, 1055176254, -1122041866, -1113783991, 1051681454], [-1116270162, 1055110467, -1075967032, 1063703393, -1085528215], [1025062438, 1033183332, 1044797990, -1096991862, 1046720265], [-1166420868, 1035379426, -1105180541, 1047403575, 1018939695]]], [[[1045130904, -1097680883, 1040690633, 1013014826, -1123894066], [-1096884471, -1120660317, 1051616753, 1051860585, -1129916203], [-1110977269, 1055803564, -1093570694, -1072771702, 1062386496], [1048426804, 1054064888, -1098775893, 1064970583, -1101103269], [1018793845, -1088910607, 1062601559, 1039134287, -1095809996]]], [[[1048145324, -1104445008, -1097549289, 1055938171, -1103602735], [1035101575, -1078694581, -1106406252, -1091063322, 1015647038], [-1100326265, 1067538603, 1046833447, 1056971355, 1041678779], [-1108440836, -1114468831, -1117310917, -1104049225, -1117497650], [-1127406364, 1051176439, 1053697653, -1096640502, 1034960096]]], [[[1030593718, 1026511656, -1104321562, -1112183822, 1041500990], [-1104929633, 1035489089, 1045667542, 1042289233, -1106925800], [1036824352, 1050532573, -1081537639, 1051470359, -1114400821], [-1118390296, -1150251896, 1038048229, -1125662779, -1120187081], [-1123080584, 1037670907, 1017473267, -1114395509, 1033967519]]], [[[-1111793293, 1055609135, -1089165470, 1028221137, 1031845341], [-1104930013, 1042517600, 1071612031, -1080598860, -1092073773], [-1093602402, -1084239021, -1087200951, 1072860113, 1049903451], [1058671314, 1062000823, -1078382412, -1098178711, 1032370178], [-1096344415, 1037353374, 1060613117, -1090207355, 1031319931]]], [[[-1104794043, -1116347984, 1060767537, -1104591612, 1045932486], [-1093796997, 1058683009, -1081057627, 1044475101, -1098421349], [1054172062, -1079409361, -1122820886, 1056417364, -1097957092], [-1101226658, 1065413876, -1117870875, 1042195178, -1100818148], [-1123773075, -1104805560, 1053494325, 1045334269, 1033726902]]], [[[1042031239, -1097358600, 1047554108, 1035015381, -1106819881], [-1107569623, 1052774507, 1067559756, 1058714417, -1140083473], [1017759056, 1036632777, -1080904036, -1076783883, 1051786221], [-1124022145, -1135081220, -1096316121, 1058216446, -1110547804], [1024392583, 1003982158, -1120157999, -1115028969, 1014519062]]], [[[-1123190836, 1009704918, -1094863427, 1050293608, -1173240116], [1047240859, -1100331438, 1066268752, -1091182837, -1090688543], [-1098948741, 1036498620, -1079885228, 1059764431, 1060366492], [1038003635, 1026918139, -1074807408, 1067713934, 1050714669], [-1104109438, 1049423823, 1058187515, -1098612398, -1096857208]]], [[[-1134064633, 1035864518, 1025544645, 1012503323, 1016164702], [-1098617621, 1054536208, -1091448808, -1104117547, 1033861702], [1040649068, -1094790248, 1058109621, 1061448745, -1107305677], [-1153790295, 1054425475, 1061726288, -1076541973, -1099235758], [1037877445, -1132900480, -1081917358, 1062533147, -1117103724]]], [[[-1114238894, 1051212486, -1137282653, -1089021290, -1102259184], [-1095616063, -1091170857, 1025660103, 1028470948, -1091120077], [-1104864540, -1089981510, 1049624442, -1130812427, -1097527030], [-1112121682, 1044053475, -1102915631, 1024983980, 1035626843], [-1089390201, -1103390834, -1087140339, -1087724106, -1096406217]]], [[[1040139409, -1091436035, -1097630920, 1057849601, -1114002078], [-1084801719, 1040792933, 1069509985, -1115366224, -1101784526], [-1105258763, 1067534226, 1057097403, -1086023505, 1007649952], [1057073320, 1026858428, -1080458681, -1088734836, 1045224214], [1040784307, -1092128906, -1106454331, 1054455402, -1113038084]]], [[[1003318186, -1101551637, 1045130016, 1039664194, -1115169437], [-1121231085, -1079779657, 1072777852, -1090899674, -1110813087], [1021194628, 1071217055, -1087075786, -1080755441, 1048709554], [1032234019, -1108230872, -1078775842, 1069122881, -1109855584], [997487417, -1111857790, 1027315903, 997083038, 1017096851]]], [[[1025115153, 1046306334, 1052112471, -1093126403, 1047605946], [-1096465730, -1095684683, -1109671188, 1050605388, -1104299120], [-1104883833, 1069806215, -1070569628, 1061564793, -1124494057], [1021969283, 1040826623, 1049941061, 1047210754, 1024081015], [-1131619391, -1132294348, -1103998580, -1111780555, -1119492735]]], [[[1042709737, 1043347151, -1099161450, 1059502019, -1088258218], [-1090331772, -1103653675, 1059223972, -1086274370, 1060256500], [1063760628, -1107199379, -1088983760, 1059511209, -1092008493], [-1080982640, 1059787619, 1035164919, -1092864729, 1050922988], [1059283235, -1088675213, 1040922419, 1047616684, -1101548067]]], [[[1021953344, 1052571321, 1038461315, -1098898120, 1039352877], [-1123809317, -1090588532, -1081969147, 1063810113, -1097762177], [1030075090, 1035748691, 1079859453, -1079640298, 1049543783], [1050022022, -1091188161, -1092131680, 1057009601, -1113084488], [-1104842338, 1031679165, 1048934743, -1110027775, 1032272996]]], [[[1046681114, -1082109970, -1098185302, 1068114883, -1097692674], [-1127442137, 1065253225, -1099288573, -1080575891, 1055324111], [-1107575564, 1066698664, 1053533524, -1077453153, 1040179222], [-1138340463, -1085098068, -1101989167, 1069198051, -1093548281], [1041705876, 1044733200, -1095548216, -1196787045, 1000018148]]], [[[-1086813030, 1065666043, -1095297567, 1038488386, -1113152872], [1068921401, -1074152977, 1063757503, -1088587862, 1035587519], [-1088833041, 1061861024, -1103942824, -1129412654, 1046049664], [1057278443, -1086892291, -1102630433, -1098741624, 1036929202], [-1105069714, 1024197928, 1054226423, -1123764719, 1036142631]]], [[[1045141873, -1119148834, 1052012386, 1037827312, 1038907157], [-1100298963, 1053387839, -1050208355, 1050369635, 1042314281], [1050143721, -1095269933, 1057691215, -1089273777, -1140531013], [-1097993034, 1038768137, 1058193015, 1045039417, -1107200761], [1023065508, 1044657602, -1095514488, -1142725416, 1035597564]]], [[[-1135258552, 1050679672, -1098261481, 1017306679, -1127167815], [-1103800910, 1041217294, -1142415367, 1034355643, -1115263101], [-1109074390, 1059571874, -1075696899, 1047047814, 1032969726], [1036118138, -1090774575, 1065342098, 1032832635, -1111590710], [-1127489946, 1034161076, -1100889356, -1104665711, 1028859356]]], [[[1028544295, -1106824458, 1051066029, -1114701810, -1110700363], [1032146866, -1105984266, -1096358143, 1076177345, -1104979016], [-1110665622, 1047863708, -1073002573, -1097231431, 1053239439], [1032035077, 1032339354, 1026138049, -1097322936, 1024181660], [997578898, -1121442182, 1031352471, -1140165909, -1117096353]]], [[[-1104313011, 1045299123, 1038513000, 1045742389, -1110807212], [1043994472, -1098910590, 1032060953, -1122077251, 1055288814], [1042274278, 1053603329, 1070034626, -1071418779, -1082843078], [-1108580346, 1034077374, 1028484547, -1106952682, 1049289173], [-1137327564, 1004419981, 1041707236, 1035203674, 1040315747]]], [[[1034573112, 1017816676, -1112913597, -1110765355, 1043798918], [-1104637884, 1052703934, 1044426682, 1056163231, -1112152088], [1044494282, 1035912200, 1070143776, 1059575437, 1022847159], [-1117945291, 1048050637, 1054872506, 1038879592, -1121332658], [-1140134738, 1039914693, 1035004467, -1118991800, 1034958749]]]], "b": [-1118364216, 1015399033, 1052574281, -1117095197, -1149485917, 1015990978, -1150160170, -1131525612, -1085760980, -1115122178, -1131523984, 985884820, -1201375192, -1124606395, -1132460847, -1103078272, -1123572427, 1014689634, 1037297696, 1025230741, -1083753289, -1133352210, 1041697381, -1122527490, -1142960499, 1059552664, 938521640, 1021071208, 1031826268, 1010292503, 1022531752, -1104116511, -1120935306, -1144655850, -1116486769, -1127799166, -1074223413, 1003866246, 1036363795, 1035325406, 1059276647, 923966698, 1036573860, 1014301722]}, {"t": "Conv2D", "o": 9, "w": [[[[-1125970782]], [[-1130027900]], [[1028294021]], [[1023801935]], [[1041836540]], [[1045050679]], [[1040290467]], [[-1114466392]], [[-1143858844]], [[-1113723276]], [[-1128162098]], [[1054867755]], [[1038683985]], [[-1108541195]], [[1024412652]], [[1022959662]], [[1035235115]], [[-1136468879]], [[1048823042]], [[1026812873]], [[-1122181805]], [[1038603818]], [[1040449828]], [[1018020971]], [[-1116001455]], [[1065020685]], [[1038802843]], [[1009497446]], [[-1101138266]], [[1007582371]], [[-1116668591]], [[-1096922408]], [[-1112393313]], [[1034626330]], [[-1114296032]], [[1022293211]], [[-1139094245]], [[-1116506367]], [[1032870843]], [[1023916336]], [[-1115446553]], [[1046526450]], [[-1104529471]], [[-1119467833]]], [[[-1100252599]], [[-1128162597]], [[-1103695402]], [[1005520476]], [[-1119503534]], [[-1119101057]], [[-1115003053]], [[-1130647639]], [[-1117076543]], [[-1110660733]], [[1018433802]], [[1035826491]], [[-1116860447]], [[-1106946917]], [[-1120298870]], [[-1118826522]], [[-1123054993]], [[1018523765]], [[1041838442]], [[1040965649]], [[-1105070674]], [[1060387919]], [[-1112662969]], [[-1111511979]], [[1016945985]], [[1043212082]], [[1033812416]], [[-1106424134]], [[1033318381]], [[-1108261847]], [[1040838870]], [[-1103838896]], [[1017843235]], [[1028044543]], [[1038122824]], [[1033749302]], [[1033883059]], [[1038796869]], [[-1142293462]], [[-1106835743]], [[-1150146233]], [[1023493709]], [[1016353878]], [[-1113634395]]], [[[-1094378732]], [[-1092567188]], [[-1107179155]], [[1033831766]], [[1043269761]], [[1046494544]], [[-1123099877]], [[-1096676908]], [[1028050810]], [[-1110096914]], [[-1109878801]], [[1056901786]], [[1049723847]], [[-1112759905]], [[1000550566]], [[-1093526039]], [[-1126298389]], [[1047469504]], [[-1090427301]], [[1033994118]], [[-1100660655]], [[1057665454]], [[1047512721]], [[-1104505338]], [[-1098891435]], [[-1105295892]], [[1053104651]], [[-1109571459]], [[1040909383]], [[-1098279160]], [[1025391336]], [[-1112495960]], [[-1130315332]], [[1057813755]], [[-1114478108]], [[1042300637]], [[1017068026]], [[-1098990579]], [[1046220933]], [[1033662387]], [[-1093755047]], [[1049444061]], [[-1097035953]], [[1042359724]]], [[[-1114707574]], [[-1108863653]], [[-1115473380]], [[-1110136754]], [[1003494315]], [[-1111241017]], [[1052572228]], [[-1100077563]], [[-1088176599]], [[1028934637]], [[-1107891131]], [[1039106406]], [[1042311134]], [[1033876720]], [[-1112520404]], [[-1127383755]], [[1052039558]], [[1026282114]], [[-1098166263]], [[-1097957688]], [[-1102821801]], [[1057377741]], [[1033651378]], [[-1103896766]], [[-1107049424]], [[1049081918]], [[1054086687]], [[-1100756852]], [[1019463900]], [[-1102569670]], [[1047891688]], [[1030432283]], [[-1088757959]], [[1056551441]], [[-1110804921]], [[1027811988]], [[-1088355451]], [[-1107146618]], [[1042143065]], [[-1118988442]], [[-1097008562]], [[1050621447]], [[-1110724788]], [[1035579863]]], [[[1041559433]], [[-1121822199]], [[1042148354]], [[1033798250]], [[1042139260]], [[1046502519]], [[1037847089]], [[1009130165]], [[-1148942649]], [[-1129289332]], [[1033003678]], [[1053309045]], [[1034997536]], [[-1117339332]], [[1034869507]], [[-1110210222]], [[1032801171]], [[1003830719]], [[-1108560670]], [[1031006003]], [[-1114762641]], [[-1105259684]], [[1048137700]], [[-1184495555]], [[-1136215447]], [[-1090838745]], [[1032824367]], [[1036125561]], [[-1102577223]], [[-1153542116]], [[-1113881738]], [[1047112651]], [[-1132383393]], [[1040193548]], [[1029944531]], [[-1128588625]], [[1045851913]], [[-1113233476]], [[1024973199]], [[1051602417]], [[1024805339]], [[1043484336]], [[-1100971993]], [[1026995071]]], [[[-1092474706]], [[-1112582388]], [[1043053469]], [[1038969745]], [[-1113099645]], [[1048650432]], [[-1119630981]], [[1031980137]], [[-1107538983]], [[1031082906]], [[-1115199169]], [[1054511833]], [[-1110999277]], [[1036019836]], [[1035544513]], [[-1097122477]], [[-1109539062]], [[1036295219]], [[1053295840]], [[1037507130]], [[-1100381888]], [[1061982056]], [[1051160285]], [[-1117779300]], [[1025988554]], [[1038947700]], [[1033109108]], [[-1110896548]], [[-1104986914]], [[-1099274162]], [[1043383759]], [[1029452120]], [[-1121683212]], [[1048544552]], [[1043383439]], [[-1099109339]], [[1031913732]], [[1032487886]], [[-1106345899]], [[-1101246202]], [[-1101076553]], [[1031079161]], [[-1105111606]], [[-1103323510]]], [[[-1126461951]], [[998693142]], [[-1138867864]], [[-1145045497]], [[1008259140]], [[1007490630]], [[1010451017]], [[-1131277276]], [[980894232]], [[-1132048689]], [[-1133318577]], [[1025450775]], [[1009210995]], [[-1130631803]], [[-1142027444]], [[1019675244]], [[1007225621]], [[-1147205289]], [[1036261021]], [[969104181]], [[1000025092]], [[1028773919]], [[-1136498908]], [[1002161757]], [[-1137865421]], [[-1139403921]], [[1013809104]], [[-1135743821]], [[-1129605830]], [[992490073]], [[-1150213319]], [[-1094374788]], [[-1133294139]], [[-1151235234]], [[-1127742350]], [[1007934350]], [[-1123350756]], [[981809501]], [[1011845200]], [[-1119527964]], [[-1128223232]], [[1017582448]], [[-1163484580]], [[1052567637]]], [[[1049046487]], [[1032045381]], [[1018466896]], [[-1091978829]], [[1047630449]], [[-1102656536]], [[1050293983]], [[-1114596201]], [[-1098380241]], [[1013637014]], [[1046170274]], [[-1101523481]], [[1042916939]], [[1056736658]], [[-1094050935]], [[-1122327928]], [[1045555366]], [[-1104952854]], [[-1111236678]], [[-1112689501]], [[1050121681]], [[-1101050062]], [[1043484732]], [[1049250268]], [[-1112819708]], [[1040918606]], [[1041552604]], [[1042078388]], [[1023269008]], [[1048843181]], [[-1102608770]], [[-1093311579]], [[-1100486344]], [[-1118658046]], [[1037584351]], [[1042381297]], [[1059612707]], [[-1131646002]], [[1040654374]], [[-1108473161]], [[1054642679]], [[1041815293]], [[-1108763328]], [[1037733861]]], [[[1015805983]], [[1046954072]], [[-1097358576]], [[1032154187]], [[-1101597129]], [[-1100676337]], [[1050754959]], [[1042531322]], [[-1103879400]], [[1025772186]], [[-1103738983]], [[-1098445035]], [[1054768263]], [[1023604301]], [[1037853405]], [[-1104981774]], [[-1116579007]], [[-1110278615]], [[-1124813528]], [[-1104438389]], [[-1150750913]], [[1033512725]], [[1024774890]], [[-1100230689]], [[1041553731]], [[-1120965875]], [[-1092935959]], [[-1103476717]], [[-1115094339]], [[-1098228675]], [[-1102419303]], [[-1103132654]], [[-1099325038]], [[1048680019]], [[-1094341140]], [[-1106060135]], [[-1096104742]], [[-1105755873]], [[-1098254473]], [[-1106352708]], [[-1092776953]], [[969196960]], [[-1101949034]], [[-1094862880]]]], "b": [-1088382017, -1116322815, 1055319705, 1032683861, 1049786210, -1114622214, 1014503694, -1094178640, -1114130861]}, {"t": "Conv2D", "o": 9, "w": [[[[-1110167297, -1097936290, -1137756176], [1059040538, 1058025244, -1116305714], [-1104782020, -1121444389, -1107698319]], [[1044284701, 1050376715, 1016467664], [1022232973, 1044905718, -1109081659], [1045777218, 1047651017, -1125288131]], [[1045644599, 1041698709, 1022895181], [1045816703, 1036117977, -1129369130], [1047843855, -1123275927, 1021798900]], [[1032742107, 1040817536, 1006829316], [-1120761840, 1043659766, 1040490787], [-1118793474, 1028969290, -1122224355]], [[-1108779586, -1115183210, -1119685104], [1052278641, -1106346676, 1043572791], [1046581283, 1033553738, 1040224601]], [[-1118606311, -1116956387, 1016798458], [-1130336242, -1099483085, 1036389214], [-1097089372, -1106060933, 1038850594]], [[-1096767431, -1116746748, -1115463302], [-1111648221, 1061441992, 1032216395], [1025679345, -1111900186, -1098998573]], [[1023646957, -1122959815, -1183265511], [-1100207877, -1091108433, 1009246494], [1010539321, -1144923416, 1039246133]], [[1026578410, 1046797098, 1028822481], [-1107094906, 1038976355, 1051192763], [1035548299, -1094720190, -1111719747]]], [[[-1131973895, -1126499692, 1023495000], [-1125186203, -1104338006, -1128563147], [1034898699, -1111202357, 1025505591]], [[-1140066857, 1030492168, -1117133305], [-1123369187, -1102858200, 1029302266], [-1119146014, 1017450439, 1034943962]], [[-1107566527, -1120902574, 998734056], [-1109426070, 1036482168, 1034121222], [-1113377060, 1042280161, 1023531905]], [[-1139260880, -1137743527, 1026457637], [-1126563771, -1123634801, -1136040388], [1012251147, 995617747, 1001398056]], [[1047019582, 1043859777, -1119564985], [1018499179, -1122531801, -1115543927], [-1112938193, 1031937968, -1117032519]], [[1032550190, 1027826241, 1023462772], [1017258709, 1041916435, -1110606011], [1033965459, -1109014521, -1106674212]], [[1050400627, 1048334851, -1113655983], [1044805903, 1053991261, -1134826673], [-1125986747, -1138524259, 1048767985]], [[-1138693579, -1140282434, -1148232042], [1027796228, 1023535100, 995603941], [-1155893461, -1155154915, -1126750244]], [[-1125754090, 996447724, 1039586819], [-1105549234, 1044494435, 1025912671], [-1097742957, 998371397, -1101740254]]], [[[-1109724260, 985671948, 1034278604], [1046157314, -1105746122, -1123365919], [1022055340, 1041117967, -1167733387]], [[1033135924, 1031204303, 1021860852], [-1114684583, 1040175733, -1107419987], [1023012135, -1103032583, -1107439255]], [[-1114276594, -1104851842, -1111699130], [-1106895622, -1098572395, -1109472831], [-1113611333, -1100692798, -1121190127]], [[1013481738, 991842597, -1114868193], [-1115640403, -1131338365, 1021023669], [-1132076153, -1130872600, -1121671302]], [[1036241898, 1039309947, 1034376259], [1048901077, 1053495176, 1039430472], [1036921895, -1114121430, 1015496556]], [[1025295565, 1025893367, 1030307982], [1043688331, 1043520248, 1049424261], [1021023417, 1050084816, 1046119735]], [[1040560014, 1049773053, 1017317327], [1052994103, -1098767672, -1100838969], [1037718106, -1099443706, -1102173242]], [[1022581273, -1123330630, 1021432845], [-1131808525, 1036176995, 1014142874], [-1128303902, 1018973538, 1032254945]], [[-1112986183, -1112327291, 1042438316], [1038193631, 1022965466, -1108016732], [-1103841892, -1108516722, 1042740803]]], [[[-1114638520, -1127241545, -1098612060], [-1115305529, -1106678442, 1038775320], [-1105499197, -1099337663, -1098074076]], [[-1115736340, -1105483188, -1105354097], [1048446974, -1130414542, -1096385589], [-1120247427, -1096236524, -1130388798]], [[-1115090827, 1040211845, -1112857057], [-1167185670, 1020581772, -1128441019], [-1100845339, -1094173270, -1121859701]], [[1021150880, 1049480117, 1026758715], [1028929436, -1095107740, -1098147206], [1013574752, 987541538, -1098362793]], [[-1104684442, 1041338990, 1041956135], [1012958200, -1103894998, -1113661665], [-1115957761, 1038025061, 1033257528]], [[-1136826244, -1114376650, 1048977683], [-1102092130, 1034263624, -1105765754], [1028458179, 1045764456, -1123688574]], [[-1134594507, -1102273207, 1038703469], [-1104399943, -1104254083, -1099258543], [1030592688, 1043066206, 1012474489]], [[-1097930859, 1030390767, -1095913702], [-1110028772, -1100464075, -1101350783], [-1102498233, 1040358666, 1038567099]], [[1035026037, -1109923626, 1028494256], [1035575210, -1106059117, 1048103589], [-1105347463, -1116778669, 1040910137]]], [[[-1109852230, 1022574003, -1123199673], [1064084928, 1057930517, -1098598007], [-1112374195, -1101398258, -1095483234]], [[1040541478, 1046016482, -1106127415], [-1097951703, -1090510303, -1097821911], [1041168912, -1145050279, -1129252684]], [[1041707524, -1116908254, -1115760809], [1043074862, -1113534850, -1103603728], [1043141709, -1105978269, -1115310933]], [[1033967652, 1036254325, 1016848864], [-1111848575, 1038199005, -1130627964], [-1145460429, 1042704131, -1106505080]], [[1036109755, -1103934059, 1012384238], [1052158098, -1087220746, 1051317259], [1050989344, 1027337345, 1046286798]], [[1017701277, 1027678955, 1030698245], [-1107677515, 1039126212, 1047335281], [-1098235227, 1017551044, 1043523359]], [[1048893380, -1102375015, 1046583735], [1040391620, -1080913163, 1046387067], [1050709974, 1041501627, 1020490258]], [[-1131610511, -1103462255, -1120205934], [-1098303628, -1107166447, 1042110273], [-1114223707, -1126140637, 1044114301]], [[1046916486, -1107438826, -1093928251], [1024841092, 1030189368, 1041203613], [1034943066, 1026195776, -1125213019]]], [[[-1104569955, -1104418777, 1016990151], [1058106681, 1061237225, -1100824704], [-1126592682, -1100334263, -1114207671]], [[1042730957, 1050316438, -1119492160], [-1116901046, -1113604600, -1122906248], [1040245669, 1042097895, 1031676300]], [[-1123438456, 984530297, -1169215674], [-1126667838, 1040540664, 1033977156], [1032061188, 1040823635, 1030946875]], [[1027645469, 1036497539, 1024579554], [-1112931104, 1032057655, 1033964204], [-1129917567, 1025170011, -1121737153]], [[1049574332, 1044074042, -1137541474], [1050854065, -1092948857, 1043312773], [1039526991, 1046512458, 1028146173]], [[1030375252, 1027658711, 1033459650], [1031301796, 1032352461, 1017498972], [-1106206232, -1102508336, -1123984961]], [[1054291409, 1044038492, 1025624268], [1050587931, -1078727548, 1046553243], [1026663711, 1042262165, 1037322727]], [[1014909737, -1115134975, 1007063695], [-1105743768, -1097978459, 1025639682], [992041372, 1002369143, 1033497229]], [[-1124496228, 1018392442, -1100952977], [1035195840, 1043699885, 1042342022], [1007405649, -1102424748, -1111212566]]], [[[-1097219843, -1091703242, -1100871021], [1047664756, 1069750024, 1031589550], [-1097548064, -1090146544, -1108336044]], [[1016963328, 1055640168, 1041114232], [1039357749, -1107809523, 1032609186], [1034549256, 1058305019, 1036143758]], [[1034930669, 1048063149, 1042526656], [1038194941, 1058579679, 1049939910], [1049883956, 1055420574, 1044100869]], [[1036823124, 1035517707, 1032677886], [-1109769503, -1122725671, 1043391482], [-1111209370, 1001513453, 1020104628]], [[-1121041199, 1048287083, -1117638700], [1050424268, -1087515143, 1027492716], [1041206474, 1065783112, 1039022301]], [[1040591608, -1101194978, -1133187286], [-1101726341, -1100095574, -1097909187], [-1104233200, -1086176021, -1112468038]], [[1051308035, -1097458596, 1044509535], [-1093672667, -1071324401, 1054960480], [1057013846, 1046621064, 1052460834]], [[-1130902587, 1033847166, 1032888891], [-1119359292, -1096140398, -1102299956], [1043358809, -1109501026, 1034232103]], [[1051218073, -1102585882, 1042936251], [-1096006316, -1108371144, -1115413691], [-1098931145, 1052315706, -1107506859]]], [[[1027672527, -1106460825, 1032726405], [-1102418783, -1126354872, -1103463743], [1023463185, 1015143147, 1043891936]], [[1037321214, 1052861694, 1044047994], [1042980784, 1058482885, 1052660363], [1025460775, 1050560835, 1045702128]], [[-1115891341, 1033823310, 1037860758], [-1105612030, -1124072689, 1033031250], [-1115528951, 1041483552, 1014799244]], [[-1114718800, -1126792569, -1117070784], [1029050051, 1033035979, 1041324931], [-1123697452, -1110037035, 1025192745]], [[-1113636318, 1034753807, -1101681605], [1015025372, 1054726591, -1122337268], [-1119952430, 1049567068, 1023535966]], [[1029123251, -1124472343, 1027790609], [1037023296, -1129728036, -1110934504], [1019653365, -1097347200, -1103988127]], [[1038820574, -1095159687, -1115059231], [-1137713658, 1045847705, 1051594897], [-1159979036, -1138081388, -1103593589]], [[1033838477, 1026774448, 998413512], [1016950576, -1099042414, -1113417339], [999029888, -1153311906, -1110170270]], [[-1121496429, -1110598330, 1046423508], [-1099492602, 1048489370, 1029335159], [-1118900023, -1135983281, -1103203283]]], [[[-1093714714, 1054938461, 1029254906], [1059563943, 1050487878, -1092024075], [-1108886383, -1094189000, 1037593269]], [[-1113284028, 1034282892, -1102434471], [1031378131, 1038914960, 1041482090], [1049192790, 1049278252, -1116573089]], [[1030391666, 1051521736, 1041389371], [1049959509, 1055372548, 1041367777], [1052664062, 1049350570, -1117345462]], [[1016588831, -1098760806, -1108309370], [-1097857400, -1100732857, -1101065016], [-1103870696, -1099017108, -1100424765]], [[1025142548, -1094197100, -1110301974], [-1112523552, -1099664399, 1055414400], [1038016549, 1052754517, -1096723406]], [[1039126100, -1125149395, -1115583690], [1042132697, -1102049997, -1108130009], [-1097860528, -1097198737, 1048521862]], [[1056154622, -1089032695, -1098490348], [-1088464965, 1055667976, 1057464820], [-1109882840, 1050114835, -1101949063]], [[-1100144175, -1132799113, -1134310990], [-1097084205, -1095310909, 1019792741], [1031937090, 1026533272, -1121901654]], [[-1104423017, 1018485429, -1102108665], [1050191543, 1040903236, -1122777936], [1033344031, 1026605477, 1027135394]]]], "b": [1016152937, 1007427945, 1031120181, -1119384345, -1127004816, -1120058931, -1104740109, -1124825286, -1116808614]}, {"t": "Conv2D", "o": 9, "w": [[[[-1102728469, 1044336872, -1096999579], [-1099692795, -1109601648, 1033032362], [973463739, 1009617697, -1118182459]], [[-1143810402, -1105047579, 1044461895], [1041501921, 1033537097, -1102443250], [1036429862, -1100590146, -1106860157]], [[-1096794939, -1098133763, -1110136999], [1017928338, 1032654226, 1031223445], [-1104967448, -1115908536, -1096189258]], [[1024109321, -1106293454, 1015079878], [-1118861044, 1038639883, 1019057545], [-1101280718, -1122218693, -1110717736]], [[1039272585, 1045282356, -1108572673], [1032764836, -1106234048, 1039459954], [1045001504, 982502664, -1102432729]], [[-1113858423, 1033608869, -1105035349], [-1093683206, -1100862591, 1033227065], [1046684522, 1026697954, -1104435503]], [[1040311902, -1097542774, -1129775895], [-1098621663, -1098483552, 1038045841], [1041378409, -1103040185, -1120527500]], [[-1102987704, -1098897599, -1113562787], [-1109802843, -1106350599, -1143660600], [1007822420, -1104821196, 1044710492]], [[-1122911247, -1117274012, 1042336145], [1043216518, -1098261604, -1110808080], [-1113922786, 1048783594, -1098050537]]], [[[1032771391, 1029071711, -1132108065], [-1121039315, 1050382074, -1123057096], [1045852979, -1102929400, -1105904414]], [[-1130182552, 1029216025, 1024836866], [-1103908467, 1058373287, 1042187522], [-1118767492, -1094345588, -1105993380]], [[1028807084, -1106700615, 1013818052], [1048901274, 1033332130, 1045682026], [1033276574, -1105182727, -1127974152]], [[-1121935003, -1106325291, 1029535611], [-1098804802, 1044872569, -1111631975], [-1115588514, -1109328063, -1161092176]], [[-1113839146, -1153207707, -1126806727], [-1100072581, 1026370246, -1120784668], [-1102466065, 1050161722, 1033638600]], [[1030688328, -1118201382, 1029479352], [1045491616, -1095481661, 1033844759], [1041826862, -1114696969, 1042555236]], [[1009393651, -1172969929, 1019138456], [1043594905, -1103168109, 1020496300], [-1110550895, -1112876949, -1165842948]], [[1007902394, 1040522491, 1022689488], [-1114886778, 1049799946, 1034833653], [-1116760202, 1043059416, 1034123925]], [[996314514, 1024127937, -1130235998], [-1130071003, 1050136770, 1032753927], [-1122319031, 1049442249, 1023121947]]], [[[1045960522, 1034769146, 1031978094], [-1089915081, -1137387867, 1037000557], [1048411276, 1047773873, -1107048666]], [[-1116200234, -1105368480, -1109949824], [-1089712273, 1049012159, -1108852170], [1051172775, 1057013217, -1114069598]], [[-1103640227, -1089090249, -1123595477], [1065516736, -1105101093, 1025049728], [1046165324, 1038288127, -1120175995]], [[-1120084638, -1107200322, 1049047398], [1033590740, 1041898713, -1119671856], [1049863179, 1035800805, 994158315]], [[1035831394, 1046476394, -1117524929], [1041458134, 1043125288, 1033798998], [-1120514639, 1049181727, 1031325976]], [[-1107715794, 1040656926, 1052078961], [1040063903, 1064183083, 1010589864], [-1088798566, -1079040403, 1050040270]], [[-1106055791, -1099421770, -1122287284], [1043615588, -1113867219, 1022713411], [1042337178, -1121209712, -1179918122]], [[-1120998658, -1104929051, 1035466838], [-1086709664, -1090166869, 990539174], [-1087589536, -1117173741, -1154986513]], [[1032971339, 1045540348, 1015360331], [1043237356, -1099495122, 1031471621], [-1114745138, 1048045220, 1047958613]]], [[[-1135475456, 1068212407, -1099470307], [-1102478800, -1106097093, 1023383167], [-1108279381, -1110709372, 1039674618]], [[-1095055868, 1048778508, -1107106530], [1047436187, -1091960668, 1049542144], [1032501819, -1112843131, 1035130386]], [[-1101782727, 1041629003, -1121539161], [1050663844, -1090330493, -1100140534], [-1104828188, 1048664483, 1046779758]], [[-1114670243, 1047850295, -1113690827], [-1117912389, -1123867850, -1105683842], [-1123700507, 1037142034, 1037604322]], [[-1086999247, -1094901874, 1029020301], [1042834523, -1097891342, -1126619923], [1016186287, -1099608388, -1107838733]], [[1063832866, -1098398068, -1096203336], [-1097912511, 1067067475, 1046415551], [-1126723826, 1027267636, -1112985457]], [[-1118120156, -1090006905, -1122491909], [1043576208, -1106685479, -1147588723], [-1128315533, 1010341085, 1009987173]], [[-1084207363, 1049898943, -1118239534], [-1130772745, 1034348446, 1030519324], [1043598256, -1099924562, -1101742464]], [[-1089530198, -1097397034, -1092027787], [-1111853448, 1049958384, -1095919030], [-1097440653, -1096882388, -1114268326]]], [[[1029683391, 1027602658, -1111224906], [1040455550, 1057379407, -1137007984], [-1121154050, 1006238838, -1120005119]], [[1043462228, -1105278949, 1008433680], [-1124042280, -1100616346, 1049070140], [-1109701575, -1119357004, 1029511545]], [[1049168257, -1092404118, 1027838010], [1034364836, -1083969192, 1053398221], [1032609136, -1126449067, 1032573783]], [[983803961, 1038178319, 1035729245], [1035233285, 1038518529, -1107668701], [1048875679, 1033746684, -1119901432]], [[1029857424, 1021214976, 1042307764], [1045449206, -1115553471, 1002520168], [-1143556062, 1033831177, 1037740396]], [[-1106600670, 1039157099, 1023739447], [-1095476227, 1060339326, 1049136867], [1031663972, 1022768619, 1044767186]], [[-1116895663, 982118345, 1021124201], [-1106151270, -1087422106, 1041162523], [-1137262040, -1115228427, 1033463279]], [[1032655457, -1131187331, -1119152156], [-1129306545, 1031103592, -1136687106], [1037647134, -1102698975, 1035871447]], [[-1122242403, -1113814062, -1128234322], [1033117045, 1040864900, -1114130032], [-1115536640, -1116871523, -1113175200]]], [[[-1126464773, 1032435169, 1040518898], [-1104013060, 1060494744, -1104708655], [1043069460, 1015659164, -1107894462]], [[-1116007964, -1095620158, 1027010242], [-1111534620, 1059802164, -1100149054], [-1132277897, 1032830288, -1116515388]], [[-1115058459, -1099420117, 1017666405], [1048067406, 1042729893, 1033616863], [-1161532702, -1099442889, -1115791531]], [[-1109920167, -1107284631, 1028841725], [-1097087487, -1118505499, 1034546672], [1029809742, -1112712363, 1044248580]], [[1027822609, -1105517437, 1021701608], [1024181944, -1088444247, 1048883626], [-1119073413, 1049288397, 1045031849]], [[-1122248780, 1054355523, -1129534915], [-1129079263, 1050968247, -1105300070], [1015570845, -1107447433, 1041833493]], [[-1123693016, -1113455341, -1133330821], [1031951938, -1098673158, 1036143744], [-1116103431, -1129055406, 994657724]], [[-1105747382, -1104214654, 1024593481], [-1115917353, -1092452644, 1043584478], [-1145558560, -1112735811, 1038039295]], [[-1136091406, 1022668921, 1042190095], [1032350525, -1100642048, 1054990456], [-1139988471, 1052215388, 1035732996]]], [[[-1130004706, 1020131218, -1106318439], [1049982588, 1037134714, -1104043177], [-1105346433, 1041545080, -1124033058]], [[-1123821133, -1125899626, 1028551631], [1050299819, 1051519396, 1023890817], [1023669862, 1054958905, 1025631231]], [[-1114221805, -1102035706, 1012390220], [-1095851495, 1047784251, 1043575380], [1014736350, 1044631503, 1039106850]], [[1030505633, 1046032395, 1044213687], [-1121569388, -1106452505, 1045696723], [1025257288, 1032173052, 1037976923]], [[-1124412083, 1025186455, -1117927778], [-1128140445, 1034038720, 1030651815], [1042928180, -1099274962, -1134320318]], [[1033340920, 1015474645, 1004810602], [1021302948, -1092385009, 1045342114], [-1109830738, 1042366926, 1017877646]], [[1010165997, -1138927292, 1028472803], [-1098742505, 1036388005, -1143985513], [1023763391, 1037751923, 1028317945]], [[1034483896, 1049541872, 1015913510], [-1119750409, 1028448597, -1112772587], [1031928236, -1099328994, -1117273374]], [[-1126970990, 1032251055, -1112497978], [1020142827, 1025073562, 1029215865], [1033854870, -1104643873, 1017738307]]], [[[-1135596233, 1044068965, -1107206417], [-1113847379, -1096436056, -1128635836], [1042618910, 1013741712, -1107692054]], [[-1133537037, 1012652238, 1006914374], [-1111408672, -1083370339, 1057655735], [-1122538720, 1048778438, 1044826649]], [[1037186414, 1045294728, 990549421], [1048920521, -1104473321, 1054503698], [1008608499, -1115511279, 1051424167]], [[-1103661221, -1122813056, -1101166348], [1032749129, -1100059214, 1017422379], [1040456719, 1043195178, -1107524569]], [[-1144885849, -1109918013, 1032288697], [-1112324129, -1108226812, 998819141], [-1105957186, 1026372791, -1135357711]], [[-1117442390, 1025882523, -1124045305], [1025951904, 1052966046, 1030837465], [1039041137, -1119546848, 1047572024]], [[-1136877516, 1004497099, 1020687738], [1041914576, 1031420743, 1039637005], [-1109552434, 1037148766, 1033767647]], [[-1116004172, -1108675259, -1106523169], [-1131325673, 1046367393, -1106545407], [1030780449, -1107436515, -1130147683]], [[1025532273, 1016854646, -1141338697], [-1110341629, 1043885081, 1034558537], [1017882593, 1037032416, 1023557555]]], [[[1042729030, 1045789714, -1123096163], [1042707205, -1089171690, 1024128064], [1046075483, -1133855555, -1116099451]], [[-1131259508, 1053667287, 1033225601], [995418840, -1087635364, 1035476698], [1042684270, 1020956563, -1119469706]], [[-1103591654, -1107632285, 1027830836], [1037501261, 1045105101, 1034254891], [1034048211, -1122092334, -1124016702]], [[-1121112560, -1116189494, 1034399655], [-1113024726, -1114663259, 1024201724], [1043943911, 1043931945, -1105158138]], [[-1106952845, 1041259693, -1108574678], [-1097123961, 1033182078, 1015613585], [-1113784736, 1046228348, 1008185479]], [[1043044502, -1091319876, 1032292077], [1050701821, 1060418520, -1107088728], [-1131273587, -1112674665, 1034034009]], [[-1139397149, 1014583453, 1033685746], [-1113091690, 1019119988, 1023522344], [-1120865876, 1016810215, -1148677399]], [[1038696864, 1054148987, 1027167273], [-1104929795, 1040433114, 1028587105], [-1103843401, 1037936686, 1014163612]], [[-1119781805, 1037739167, -1111597593], [1035779200, 1046490256, 1034663987], [-1150745465, 1048268075, -1129690817]]]], "b": [-1110514021, -1133374536, -1119692424, -1111304034, -1119926603, -1140386526, 984292374, 1012757563, -1132016865]}, {"t": "Conv2D", "o": 9, "w": [[[[-1107199185, -1107943086, -1116704469], [1037163268, 1026481170, -1100536477], [-1109162068, -1111885173, -1133456683]], [[1037008507, 1040782521, -1090112859], [-1106434186, 1047970141, 1036083630], [1026296322, 1035921548, -1134126939]], [[1007864099, 1015108331, 1030429218], [-1130938870, -1116275444, -1138131776], [-1160248341, 1010983910, -1136228617]], [[1028129965, 1032335999, 1014217877], [-1142927104, -1110029353, 1030525422], [-1140136014, 1022532048, -1131784137]], [[1032333166, -1098681078, -1108093513], [1049094491, 1032452523, 1023977871], [1016264651, 1013988087, -1132751174]], [[-1119580206, -1109981793, 1038390923], [1039250044, 1046508001, -1106120980], [-1106377067, -1115424579, 1020428174]], [[1048423240, 1042076784, 1052491976], [1038959910, -1121467205, 1048507017], [-1121047603, 1043644640, -1129229175]], [[1046743557, 1051101853, 1031984375], [1042678890, -1088765206, -1101125915], [-1138193941, -1118931147, 1023176355]], [[-1115629838, -1105004673, 1038968682], [-1111051032, -1092135765, 1054241381], [1029854699, 1045999262, -1126113822]]], [[[1044016297, 1040709012, -1158412861], [-1118788293, -1108190420, -1110840352], [1022524557, 1008878348, 995491217]], [[1057215471, 1052172228, -1098261847], [-1089200961, -1078014199, 1050812853], [1048236560, 1063591540, -1094461865]], [[1044136142, -1095838194, -1129661688], [-1116597736, 1054443025, -1108424602], [-1134248519, -1101774176, -1111091871]], [[1021066311, 1050756952, 1005355862], [-1098123119, -1084624481, -1105559869], [1032562963, 1059625535, -1154677431]], [[-1117258179, -1093925700, -1089290043], [-1092362413, 1058889411, 1053948092], [1053636379, -1131697646, 1024377578]], [[1058136679, -1098413353, 1045379299], [-1094614774, 1051362869, 1037988552], [-1100218359, -1105632895, -1116258012]], [[1049701919, 1049702561, 1045269309], [-1089092305, -1087581597, -1098484551], [1045545787, 1044923109, 1051722905]], [[1047242119, 1028849576, 1057352625], [-1100885107, 1049224338, -1083438690], [-1101399078, -1085705647, 1054945080]], [[1025449795, -1088263368, -1111045933], [-1088748138, 1057237129, 1060943574], [1052660216, 1049277254, -1130839291]]], [[[1040455185, 1043722545, -1118157073], [1047042232, -1104593139, -1102299959], [1039464561, 1044131927, 1019791807]], [[-1143556167, -1139888372, -1107545513], [-1105916356, -1085590876, 1011939755], [1046120691, 1028865659, -1131079455]], [[1017437064, 1030864327, -1123663872], [1032700673, -1126005077, -1118329388], [-1145588658, -1117858891, -1117298404]], [[-1122343127, -1118960956, -1135880462], [1025453301, 1041966362, 1017601423], [1034512525, 1034307330, -1133378010]], [[1032859137, -1114718140, 1032909752], [-1117946584, 1056904830, 1036892160], [1026033699, 1025580342, 1023185433]], [[-1116330137, 1027735480, 1034601266], [-1110458662, 996521682, 1025839297], [-1096464400, -1132054095, -1123249656]], [[1025606853, -1118643766, 1028559514], [1048546674, -1092087768, 1036319251], [-1116806446, 1042955866, 1011851846]], [[1027308660, 1044636449, -1117557057], [1053676044, 1028561904, -1104979596], [-1118203639, -1105524826, 1002219011]], [[-1125698142, 1020551245, 1035999993], [-1138730366, 1061193992, 1042658426], [-1121292246, 1049430015, 1032859944]]], [[[-1131166693, -1114459513, -1120078417], [1022958683, 1049262885, 1033440636], [-1100946971, -1095724650, 1051172744]], [[-1095975811, -1081903340, 1042100463], [1065724528, -1103640372, 1052009449], [-1126958921, -1129288238, -1109960874]], [[1003470755, -1127551315, 1034015332], [-1097831752, 1059128492, -1112230432], [1049271104, -1104115013, -1097507795]], [[1033819592, -1118927632, 1019321497], [1052714750, 1060723755, -1102482888], [1044389254, 1037933118, 1048666253]], [[-1098709256, 1045380108, -1113523467], [-1094546240, 1065669849, 1015124010], [1042055851, -1113855504, 1042433561]], [[-1104511037, -1098750505, 1048158062], [1029900554, 1048863700, -1082223446], [-1109609539, 1052671185, 1050588873]], [[-1096552983, -1107119966, 1035891274], [1058873742, 1049137532, -1087024299], [-1114476999, 1048605637, 1026175131]], [[-1102429023, 1033751885, 1019142925], [999332460, -1096775561, 1038023553], [1024190788, 1041307039, -1107961009]], [[1035675422, 1059174479, -1138176391], [-1151185361, -1086451153, 1039223121], [-1098573301, -1102895166, -1092833149]]], [[[-1107138037, 1041463368, 1045324410], [1048801208, 1042853068, -1101034324], [1033332529, 1011816548, 1046275722]], [[1024326698, -1107784350, 1049192918], [-1100838447, 1054174510, 1039736342], [1043080256, -1099844546, 1030194992]], [[1025490235, -1140451742, -1124911615], [1033791255, -1179813028, -1119243055], [984828691, -1112438159, -1124080819]], [[-1118068758, -1119738208, -1123458986], [-1146980836, 1050111190, -1131321814], [1035876868, 1018589740, 1023894136]], [[-1124334097, 1042119689, 1033830933], [-1135476214, 1051348152, -1132419413], [-1142627766, 1041561417, 1027332559]], [[-1119298252, 1030320883, -1109345049], [-1106454797, 1052318861, -1123548134], [-1093530272, 1046044161, 1029251319]], [[-1112469094, -1098225181, -1103311829], [1055776245, 1050766784, -1098821122], [-1111645563, 1046531963, -1119421624]], [[-1108305212, -1116770364, -1128302032], [1060306506, -1091489858, 1041265103], [1016851615, -1132431543, 1017002617]], [[-1113941209, 1049863652, -1123640034], [1003554925, -1170908239, -1093286349], [-1113749407, 1051403278, -1096705553]]], [[[1041360072, 1016619864, 1017495743], [-1101674839, 1047453966, 1042803445], [1008724696, 1042692869, -1103189259]], [[1059017273, -1083306509, -1112174341], [1053804847, -1085143045, 1045943037], [1040655535, -1122052538, -1145590591]], [[1036048438, -1119732939, -1112746133], [1043421837, -1126413766, -1106361993], [1038785039, -1114396113, 1019794530]], [[1018240752, -1099186486, -1130264431], [1050866225, -1086044730, 1047556362], [-1115826110, -1123385250, -1127108029]], [[-1091625513, -1105326994, 1059750362], [-1086282052, 1062369503, 1041727423], [-1102992836, -1105040309, 1042838679]], [[-1092170408, 1059061065, 1048304667], [-1106808963, 1056859862, 1049105117], [1013402461, 1037953125, -1121902103]], [[-1101792258, 1037989897, 1056578174], [-1097864610, 1051842911, -1093895661], [1016624642, 1037583239, -1106280015]], [[-1146720489, 1057173620, -1083884580], [-1089201152, 1063833905, 1027806887], [-1111259184, 996575840, -1125557779]], [[-1138314344, 1055514589, -1089908983], [1035507554, 1041764648, -1092689166], [1028042523, 1047849687, -1098146334]]], [[[1045520465, -1117237960, 1017212335], [1033180327, 1041435789, -1128077456], [-1103778166, -1110328220, 1040624974]], [[1040404152, -1106915334, -1098779845], [1036052345, -1115488088, 1035522084], [1041530012, 1049022989, -1105383555]], [[1024741191, -1096339017, 1032622156], [-1127161469, -1131440844, -1119150910], [1036329621, 1035792140, -1094877790]], [[-1097132951, 1034445410, 1044097961], [1033690115, -1104237278, -1104625864], [-1099586670, 1043220902, 1026426434]], [[-1100650364, -1097082839, 1034004660], [-1097834032, -1121297507, -1110648725], [-1114437494, 1035157049, -1119566601]], [[1029592054, 1040688477, -1105572299], [1032292670, -1100026989, 1035043090], [-1130724640, -1099612592, -1097526308]], [[1041299820, -1103705381, -1100313516], [-1104177630, -1100151633, -1103928208], [-1098874207, -1095079153, 1032994390]], [[-1124651864, -1130269246, 1030910610], [-1105156257, -1108573513, 1035017875], [-1120202212, -1094824506, 1014176724]], [[1041976273, -1105701387, 1024197390], [-1100467296, -1100516778, 1030241595], [-1107174734, -1106804474, 1038496012]]], [[[1024544849, 996387093, 1036478759], [-1099238238, 1035734045, -1127983729], [1048831642, -1137419149, 1040254759]], [[-1106582129, -1093514244, -1105744222], [-1110685025, 1063429764, 1015228005], [1021813684, -1098094756, 1002198965]], [[-1116144501, 1042159553, -1122706385], [1037442229, 1023553774, -1112127577], [-1139330608, -1126180911, -1112768975]], [[-1124767350, -1121859563, 997271409], [1025830582, 1054987559, 1010789604], [-1139411231, 1040794812, 1028313003]], [[1024808120, -1119487228, 1039133358], [-1097621360, 1049308284, 1036212332], [-1132030051, 1028462479, 1026001282]], [[-1108749305, 1035634143, 1031467464], [-1102586663, -1101104479, -1105146809], [-1099377654, 1052489387, 1023913642]], [[1040904379, 1042944815, 1025000656], [1024694992, -1096005622, 1015401168], [983387398, 1018830577, 1015907627]], [[1050756148, 1050406547, -1119658404], [1042046943, -1098021729, -1106466384], [1038300211, 1007369399, 1019316460]], [[-1166239256, 1041633109, 1041703808], [-1113055787, 1052865542, 1039856688], [-1137702424, -1111329856, -1103333484]]], [[[1050485747, -1106951939, 1029228612], [1041232512, -1098290404, -1107386674], [1042951673, 1052772873, -1116056597]], [[1028960841, 1026187890, -1114727001], [1059408546, 1046060540, -1102501228], [-1135682277, 1037004907, 1038938443]], [[1020742655, -1131386094, 1024394143], [1026007130, -1094682640, -1108134770], [1025023748, 1054237851, 1040390560]], [[1035071075, -1106113108, 1020585178], [1040594409, 1048714983, -1127107300], [-1116799466, 1044151046, 1042324718]], [[1048211681, 1052382771, 1039368635], [-1121647138, -1088770682, 1032152329], [-1115466531, -1102735852, -1104746676]], [[-1092489061, -1094513641, -1117977773], [-1094528125, 1066683836, 1031957089], [-1105770545, -1090467534, -1124128694]], [[-1097829625, -1090149219, 1023648200], [1038929757, 1053348958, 1019058954], [1028810777, -1125053859, 1039791942]], [[-1093360321, 1047004704, -1117261153], [-1090971339, -1103538737, -1106365511], [1018963054, -1120763558, 1043599745]], [[-1100809014, 1061507896, 1025878612], [1043754486, 1035980402, -1107113352], [-1112698504, -1124047096, 1017834357]]]], "b": [-1142856653, 1021012480, 1030082709, 1024166887, 1018451656, -1113709790, -1110519276, 1009384963, 1032004845]}, {"t": "Conv2D", "o": 9, "w": [[[[-1096312674, -1101802629, -1104888268], [-1097520681, -1136469231, 1031938746], [-1095953041, 1035212202, -1112890747]], [[-1103164217, -1147399490, -1104756623], [-1098738629, -1106365909, -1097000734], [-1111185476, -1107441925, -1103058385]], [[-1113953294, 1043186644, -1100610646], [-1110142475, -1115668724, 1033082401], [1026475922, -1119652926, 1039420762]], [[1021156954, 1028779020, -1157803101], [-1117887079, -1112641768, -1118118287], [1010817027, 1043970780, -1104470672]], [[-1127718232, 1048513478, -1104563030], [1037173356, -1095527668, 1040648605], [1037437555, -1103895396, -1104906250]], [[-1106841980, -1121295166, -1092301952], [-1098433164, -1095688836, -1104535999], [-1093962013, -1104986214, -1095510373]], [[1039868104, 1048764027, 1047901255], [1049786573, 1029654150, 1050716830], [-1102318716, 1038315745, -1122774018]], [[-1105584681, -1121068264, 1043510106], [-1100994255, -1096405475, -1197589504], [-1111954309, -1109725812, -1113328914]], [[-1094858130, -1096644890, -1099990695], [-1098057872, -1096645374, -1112373092], [-1101630286, -1092625583, -1100710036]]], [[[999813191, -1096847548, -1123356223], [1049150565, -1135704141, 1053748331], [1023820227, -1096667371, -1119661021]], [[970658708, 1049311801, 1042523045], [1040825762, -1100271184, 1016530561], [1029950429, 1036350279, -1133362543]], [[-1127846780, 1037642065, -1104462005], [1048466278, -1084225401, 1061052486], [1019600782, -1097096267, -1114991884]], [[-1112872654, -1104767225, 1007676577], [1035320153, 1049010308, -1113672507], [-1113939867, -1103636985, -1177074700]], [[-1105052307, -1098824566, 1022576125], [-1123078186, 1059195991, 1053122465], [-1118291971, 1035333176, 1004369603]], [[1022794565, 1031359884, 1027981549], [-1140508789, 1005716718, -1129800071], [1042431789, 1035995812, -1112073595]], [[-1122849773, 1049197917, -1119704640], [-1112138301, 1013961880, 1013316094], [-1102198098, 1009591822, 1044390729]], [[1019683312, -1115679578, 1026666222], [-1108656485, 1061168502, -1091354018], [-1111767010, -1100279742, 999131210]], [[1030062349, 1041511435, -1112312604], [1028666632, -1121864275, 1043718893], [1043359495, 1039803308, 1032484195]]], [[[1029488078, -1142275551, -1096778174], [-1107140233, 1052928241, 1046336651], [-1116565707, -1114034799, -1113389014]], [[-1123486667, 1037981401, -1143969286], [1030333534, 1032976142, 1033192962], [1025167060, -1124650349, -1131665912]], [[-1113832813, 1040977341, -1090917901], [-1115043395, -1094090962, 1055856858], [1042670127, 1016664459, 1023868169]], [[1028473941, 995479193, 1038022854], [1042125289, 1064198485, 1025390433], [1043234428, 1049581301, 1037061529]], [[1015658493, -1106552201, -1096865441], [980438032, 1051577699, 1042303420], [-1111281210, -1105976724, -1127513151]], [[-1127965366, -1122106195, 1020029374], [-1106636445, 1021773222, -1125672454], [1029717881, 1037807935, -1113991950]], [[-1103726289, 1039552786, -1111632645], [-1103074864, -1118707212, -1118068725], [1034808225, 1042188409, 1041939575]], [[1035379322, -1106466003, 1052377110], [1032040912, 1048094527, -1101496667], [-1113986318, 1050909352, 1016274614]], [[1001040477, 1032884539, 1015046862], [1035113662, -1097379608, 1033537148], [-1125074088, 1034536682, 1032515343]]], [[[-1098334684, -1101857012, -1122036010], [-1109984758, 1016108205, -1096816916], [1017481462, -1106621263, 1044565626]], [[1048991781, -1111169108, -1105777299], [1035279806, 980808769, 1036563725], [-1106056651, 1044906235, -1101761757]], [[1019686168, -1110095004, 1037455148], [-1112145126, -1100056446, 1044577475], [-1105819443, -1122789402, -1100200136]], [[1032112826, -1113153747, 1018450211], [-1105999832, 1027652450, -1098531654], [-1132202550, 1028363905, -1113197759]], [[1028847828, 1045326492, 1041359015], [-1101615602, -1166206728, -1140651608], [1027808759, -1106324933, -1101093834]], [[-1100780865, -1108510494, -1104089215], [-1091477272, 1039226625, -1107231087], [-1100409903, -1106373787, -1119221959]], [[1028469152, 1051632077, -1104394483], [1046196812, -1103072229, -1108012469], [-1104013807, 1041182532, -1111598095]], [[1028226529, -1160118889, -1100851192], [-1112144107, -1103994291, 1027929791], [-1114525552, -1109467628, -1096812646]], [[-1096060403, -1095091343, 1040580087], [-1104725918, 1030337422, -1105761801], [-1101782550, -1106072052, 1031809263]]], [[[1030034762, 991523393, 1032896420], [-1103968070, -1089843223, 1042791896], [1052027996, -1117803228, 1031370716]], [[-1107524141, -1120208143, -1114411332], [1032313974, -1105174308, -1112555716], [-1129209447, -1128613461, -1124532814]], [[-1100728281, 1043532505, -1105417451], [1043240102, -1090378096, 1038906509], [1043732018, 1016423108, 1024189181]], [[1037247926, 1021896639, -1132108665], [1041295423, -1105598231, 1018340630], [-1120081251, 1027528921, 1036742525]], [[-1113874970, 1045902296, -1137116995], [-1097748567, -1114282560, 1047853358], [-1101455629, 1022157254, 1034933396]], [[1019530083, 984616007, -1146769946], [1034508201, 995254832, 1012520946], [1054057896, -1099689434, -1127454483]], [[1048042051, 1032633159, -1123049570], [1021792570, -1112887318, -1116313450], [1041804160, 1036376137, 1041607211]], [[1042970440, -1106821238, 1025414246], [-1098246563, 1062412342, -1104586338], [1045906909, 1048912120, 1006329496]], [[1010795676, -1115493124, 1018633950], [1035767884, -1107624225, 1014513431], [1016898235, 1047256515, -1118958015]]], [[[1019605049, -1127626904, 1011774104], [1044418128, -1121768847, 1027495407], [-1117399349, 1019735099, -1104952023]], [[1025259904, -1112176141, 1032091088], [1024929468, 1053546951, 1025237482], [-1143333923, -1119309508, 1012620966]], [[1037103854, -1093326891, 1047205810], [-1098768712, -1095037396, 1057072827], [-1111303361, 1044740338, -1105369506]], [[-1108911745, -1121127181, -1117954005], [-1105226829, 1054636529, -1114043656], [1023267142, -1135863824, -1126477490]], [[1024671793, 1044088503, 1033920653], [1024996838, 1056452316, -1115222230], [1019594638, -1116406751, -1116456614]], [[-1134418547, 1035196894, 1014326634], [1038680776, 1043182019, -1112773368], [1042632860, 1054557692, -1129206869]], [[1044170089, 1044552145, 1015517187], [1027521625, 1035620335, -1117764696], [-1154061562, 1026646915, 1035252878]], [[-1110757993, 1033260723, -1105979563], [1032134654, 1051020103, -1105987701], [-1148038722, -1106764696, -1125498111]], [[1027850711, -1106722135, -1114538607], [-1120206000, 1054559165, 1033743092], [-1102909333, -1097625730, 1032454699]]], [[[-1112536473, 1041516196, 1043846044], [1039669035, 1043012847, 1041803636], [1045732992, 1042801541, 1019547193]], [[1027097504, -1118192614, -1122819434], [-1130665359, -1114448006, -1136770024], [-1137193377, 1018132490, 981154053]], [[1036994009, 1041349497, 1050574455], [1016001861, -1082053303, -1122321322], [1046702705, -1138490678, 1029954305]], [[967370964, 1035548524, -1122146434], [-1136484742, -1096079309, 1040671313], [1027902981, -1127797001, -1126711438]], [[-1102232603, -1120972600, 1051069860], [-1098682814, 1059522315, 1037892765], [-1101999341, -1101322659, -1128401625]], [[1010275004, -1129680315, -1136168682], [1008346371, -1126297457, 994781140], [-1123170947, -1111260063, 1025957770]], [[1037137760, 1042965230, -1129562436], [1048438651, -1124853237, -1137663344], [1049602567, 1025488281, -1104441744]], [[-1115544211, -1103025341, -1100680839], [1048780764, -1130904327, -1106226276], [1035895182, 1048093202, 1001023998]], [[1025908079, -1130295831, 984863692], [-1129658071, -1120832339, 981867102], [-1128184027, 1039077096, -1125082546]]], [[[1029992974, -1112812315, -1111585948], [-1104762544, 1051247478, -1176030744], [-1107120299, -1121856388, -1126948726]], [[-1121018036, 1029152794, 1026458349], [1026547650, 1036191938, 1014558143], [1010892087, -1128018836, -1162766514]], [[-1120277348, -1112431828, -1114367429], [1042102771, -1097582298, 1047750589], [-1117046847, 1027519762, -1117474613]], [[1019746882, -1120517836, 1015660911], [1040017823, 1047468213, -1111628815], [986178824, 1035678410, 1014303348]], [[1037766247, -1123113096, -1104207298], [1028773136, 974420307, 1040674174], [1033091267, -1165225431, -1124391337]], [[1003331634, 1025935794, 1008946099], [1019719450, 1025121429, 989793687], [1040158325, 1035843754, -1116168812]], [[1017408067, -1106450829, -1111811640], [-1101844688, -1095941909, 1026158631], [-1112649056, -1104659255, 1040393554]], [[1021156329, 1031594688, 1033774267], [-1105433879, 1041562988, -1111502807], [-1123924805, -1111269909, 1027259135]], [[-1126377791, 1019581249, 1016337970], [1016641365, 1027720306, -1138932336], [1008081655, -1109345189, 1019227718]]], [[[1046529130, -1098005344, -1147907427], [-1093694992, 1063686991, 1033283550], [1037176439, -1088064521, 1024369002]], [[1025186005, -1106741506, 1040770927], [-1126797326, 1042755245, -1132430520], [-1131543032, 1006879663, -1115088903]], [[-1107200478, -1085351198, -1093741274], [1014339621, 1061167029, 1033815164], [1043595560, -1152018274, 1021476024]], [[1028709625, 1035966110, -1130302910], [1033642063, -1110817736, 1033727895], [-1136375900, 1041827200, 1038261291]], [[1045163787, 1059167787, -1104605027], [-1107802274, -1089762999, 1040863208], [-1104383051, 1041169450, 1010184095]], [[-1129843616, 1023225863, 1027262115], [1019737675, -1125087928, -1138434871], [-1106336857, -1098511683, 1013876753]], [[-1117659271, 1050038604, 1031838121], [1034320591, -1112643527, 1034251439], [-1122190221, -1104229516, -1102731386]], [[1026869572, 1036055289, 1056220950], [-1104704412, 1026529490, -1093972889], [-1131005747, -1106284022, 1024014935]], [[-1150126866, -1097943238, -1115597204], [1037407205, 1061771986, -1117569769], [1038363003, 1041187146, 1041738887]]]], "b": [-1101436610, -1136817126, 1014323609, -1107285018, 1029452760, -1130909255, -1164885962, 1058608953, 999188575]}, {"t": "Conv2D", "o": 44, "w": [[[[-1094378219]], [[-1115189204]], [[-1098354224]], [[1019080387]], [[999654322]], [[1044065438]], [[1022501385]], [[1052944237]], [[-1106686667]]], [[[-1099078589]], [[1026294403]], [[-1097304547]], [[-1089998440]], [[-1110301385]], [[-1115619297]], [[-1139044196]], [[-1114846321]], [[1045886649]]], [[[-1113888935]], [[1025332041]], [[-1097162299]], [[1005347951]], [[-1118947923]], [[1038794813]], [[1021541014]], [[1047162235]], [[1039396611]]], [[[-1085096171]], [[1008614645]], [[1035517922]], [[-1130452807]], [[-1132793050]], [[990253802]], [[-1173092618]], [[978262185]], [[-1121205702]]], [[[-1109446818]], [[-1153880292]], [[-1095483349]], [[1057328222]], [[-1091552671]], [[-1140183209]], [[-1093929006]], [[-1084253574]], [[-1085648346]]], [[[-1103212316]], [[-1106892736]], [[1032096152]], [[1059630810]], [[-1103458390]], [[-1114484793]], [[1028406516]], [[1053198696]], [[1032853457]]], [[[1061137853]], [[-1106741656]], [[-1102657632]], [[-1085529388]], [[-1092496924]], [[1022115302]], [[1040512022]], [[1063804801]], [[-1096320322]]], [[[1046883803]], [[1034107932]], [[-1115414264]], [[-1090459441]], [[1032007075]], [[-1139412654]], [[1021135247]], [[1044219004]], [[1031774089]]], [[[-1118883182]], [[1008497111]], [[-1106654054]], [[-1093250735]], [[1015873803]], [[1040691406]], [[1023259260]], [[1049042063]], [[1029797114]]], [[[-1094947377]], [[1021012997]], [[1010203991]], [[1055521872]], [[1031593844]], [[-1126420602]], [[1021807397]], [[1045163862]], [[-1115635386]]], [[[-1131250024]], [[-1114238798]], [[-1119928155]], [[1059198852]], [[-1109361193]], [[1039714871]], [[-1142907935]], [[-1144549752]], [[1043796970]]], [[[1054455064]], [[1048678253]], [[1011330805]], [[1058972729]], [[-1099091355]], [[-1098416182]], [[-1128206160]], [[-1109570676]], [[1040628231]]], [[[-1140927502]], [[1046838465]], [[-1116654339]], [[-1092522662]], [[-1103190707]], [[-1120390849]], [[-1136913746]], [[-1118048252]], [[-1148049024]]], [[[-1095489386]], [[-1106439681]], [[1041778956]], [[1064954993]], [[-1112417527]], [[-1113292935]], [[-1120077033]], [[-1098250150]], [[-1128119274]]], [[[-1098226596]], [[1045110735]], [[1028730134]], [[1043510112]], [[-1113107672]], [[-1104817349]], [[-1123601291]], [[-1100519511]], [[1025372162]]], [[[1046623516]], [[1031867723]], [[1040606414]], [[-1087851947]], [[-1112982074]], [[-1112258774]], [[-1121195744]], [[-1098906223]], [[-1130480754]]], [[[-1106737139]], [[-1102394278]], [[-1100313781]], [[1035657464]], [[-1113922281]], [[1041765159]], [[998415991]], [[1032395348]], [[-1120826120]]], [[[1057373597]], [[-1101212279]], [[1035142335]], [[1056502739]], [[-1098892394]], [[-1113255601]], [[1032363069]], [[1057172158]], [[-1102161489]]], [[[-1101919640]], [[1034203644]], [[-1114970266]], [[1060026295]], [[1039402648]], [[-1118260184]], [[995653300]], [[1031549333]], [[-1114282868]]], [[[1063076665]], [[-1116500218]], [[1000088107]], [[-1099367986]], [[-1110665378]], [[1031066633]], [[-1119395909]], [[-1096580560]], [[-1111229258]]], [[[1061327817]], [[1046096186]], [[-1100600867]], [[1050649664]], [[-1096037411]], [[-1102223608]], [[1008923853]], [[1037826152]], [[-1137075577]]], [[[-1097678180]], [[1037185019]], [[-1130996822]], [[-1092781642]], [[1032309311]], [[-1106266784]], [[-1112670858]], [[-1110990132]], [[-1120328652]]], [[[1006654798]], [[1030353333]], [[1040762215]], [[-1087739101]], [[-1109002145]], [[-1098948710]], [[-1121466811]], [[-1097696396]], [[1014205820]]], [[[1046632145]], [[1030067004]], [[988421774]], [[-1100375061]], [[1029459693]], [[1034995938]], [[-1115543318]], [[-1094213905]], [[-1123089931]]], [[[-1105443934]], [[-1108690895]], [[1013754253]], [[1039752212]], [[-1147493262]], [[1007286902]], [[1024628394]], [[1052894860]], [[1023433068]]], [[[-1092730871]], [[-1108949969]], [[1041586269]], [[-1087564516]], [[-1115352569]], [[-1120003331]], [[1008756575]], [[1036944180]], [[-1112500136]]], [[[1029022334]], [[-1097029380]], [[-1125125731]], [[1059277447]], [[-1098607041]], [[1048647066]], [[1043366435]], [[1057179330]], [[1036344818]]], [[[1062841868]], [[-1115240210]], [[-1121369571]], [[1034103876]], [[1027578217]], [[-1124857540]], [[1026013441]], [[1049996448]], [[1032357083]]], [[[-1096820212]], [[-1139890159]], [[1026362243]], [[1050720399]], [[-1097456530]], [[-1092733266]], [[-1110708523]], [[-1086729677]], [[-1109765301]]], [[[-1090382778]], [[1032348963]], [[-1135761110]], [[1061992697]], [[-1114538577]], [[-1128055182]], [[-1119788954]], [[-1096099248]], [[1038500014]]], [[[-1110707480]], [[-1133846611]], [[-1120557498]], [[-1096617450]], [[-1114855119]], [[-1113052408]], [[1012317950]], [[1034645962]], [[1042941730]]], [[[-1101071565]], [[-1149145080]], [[1016846405]], [[1013279631]], [[-1149758503]], [[-1119940435]], [[1009560687]], [[-1112959340]], [[1002097163]]], [[[1060120137]], [[1038390776]], [[-1116622700]], [[1060028920]], [[-1095936888]], [[-1137215810]], [[-1153125258]], [[1010010194]], [[1048401836]]], [[[-1097000571]], [[-1154958096]], [[-1131768327]], [[-1100864858]], [[-1127690514]], [[1033109971]], [[1021029227]], [[1046802682]], [[1032772591]]], [[[1064499763]], [[-1104250798]], [[1029802942]], [[1037382190]], [[-1105854667]], [[1039681827]], [[-1174551987]], [[1026679789]], [[-1121450554]]], [[[1044328957]], [[-1108119528]], [[-1108584177]], [[1061566682]], [[-1105111244]], [[981499856]], [[1039272667]], [[1062585551]], [[-1123328567]]], [[[1049522228]], [[-1104239293]], [[-1098674406]], [[1052968084]], [[-1108300558]], [[1034764366]], [[1036851451]], [[1061138457]], [[-1129836430]]], [[[1034024129]], [[-1120562659]], [[-1197517886]], [[-1108884231]], [[-1121358010]], [[-1115082748]], [[1027906765]], [[1050027317]], [[1020597843]]], [[[-1087419742]], [[-1105867960]], [[1039571053]], [[-1094232851]], [[-1137760810]], [[-1108517757]], [[1022727164]], [[1050858421]], [[-1104289982]]], [[[-1107800097]], [[1023141913]], [[992840698]], [[-1088281089]], [[-1138192279]], [[1032510734]], [[984043865]], [[-1131930197]], [[986010334]]], [[[1042799104]], [[1028439748]], [[-1105952140]], [[1051092771]], [[1022965792]], [[-1113459054]], [[1030678390]], [[1053366725]], [[-1115369663]]], [[[-1082807631]], [[1015919261]], [[999780232]], [[1015684415]], [[998894776]], [[1016013238]], [[1044137940]], [[996324898]], [[-1137624567]]], [[[1049162100]], [[-1102956266]], [[-1109762223]], [[-1123442384]], [[-1113397082]], [[1046186393]], [[1011628685]], [[1043124907]], [[-1106452061]]], [[[1048895077]], [[1034320212]], [[-1113758047]], [[-1106279777]], [[995342622]], [[979164550]], [[-1126901408]], [[-1101611630]], [[1004497901]]]], "b": [-1099155818, 1022333064, -1105901096, 933076619, -1159569324, -1099856628, -1089915511, -1108671393, -1104588253, -1107417356, 1001612198, 1029070186, 1018461875, 1041593504, 1040536883, 1040867967, -1119517376, -1097036339, -1118248619, 1044225757, -1115292287, 1029742367, 1042640432, 1046536885, -1099231397, -1115886470, -1086955532, -1103695522, 1054628492, 1045051119, -1116731311, -1116263078, -1128398256, -1106395037, -1117660883, -1090635230, -1091795995, -1104611545, -1101287364, 1007672458, -1099611887, -1140516763, -1110739440, 1040566055]}, {"t": "Subpixel", "s": 2, "o": 4, "w": [[[[995800508, 989913174, -1121354974, 1022491329, 1024281971], [-1138623600, 1024014313, 1024805384, 1034508424, -1122330074], [1014911386, -1132433041, -1099995774, -1097587002, -1144769527], [-1125513610, 1040505491, 1040843272, 1045648885, -1138003400], [1020474413, -1114993841, 1009757650, -1128631371, 1010849124]], [[-1156459576, -1155867359, 1012411922, -1138110702, -1156868550], [-1127458950, 1015724257, -1132433504, 1033158054, -1125790209], [1013532595, 1024515678, 1055226500, -1105567884, 1027883871], [1023360038, 1009834469, 1049180723, 1028843227, 1025289546], [-1167708378, 1010243616, -1143598042, 1023620403, -1153076221]], [[-1148710327, 1010989114, -1144955344, 1018246371, -1133437485], [1012540005, -1128444089, -1113369285, -1121513978, 999996002], [1010525674, 1032324963, 1026387372, 1036736792, -1126592443], [1006284513, -1139396707, 1051291274, -1117350714, -1129464977], [-1169993474, -1121931354, 1021502113, 1023676868, -1134517493]], [[995689789, -1123671503, 1034709433, 1025042505, 1012460228], [-1145727351, 1010481815, -1106500680, -1107179285, 1024786960], [1012079956, -1144470678, 1053031056, 1039700719, -1125249552], [-1120433565, 1032504922, -1093349734, -1105366619, -1121537569], [998549716, 984517751, 1029488814, -1130708523, 1016816831]], [[1023665208, -1119796810, -1127289303, -1130671272, 1028026449], [1018793628, -1121843710, 1019410449, -1147932329, 1007173271], [1030184732, 1033530880, 1023603627, 1034767984, 1016802156], [-1121382678, -1121176732, -1119051167, -1128725052, -1139510558], [1013541327, -1117393464, -1112335197, 930423686, -1122685528]], [[-1147669738, 986742915, -1125784275, 1019562471, -1192244966], [-1146432361, -1131835379, 1035584113, 1032631554, -1130493636], [1007193754, -1125476251, 1045656194, -1100180564, 1033817942], [1001460805, -1120511685, 1036569218, -1144222826, -1129606923], [997423927, -1146063864, 1023439201, -1146277964, -1131400854]], [[-1184164974, 1008093335, -1141692714, 1026452667, -1136151011], [-1156220543, 973876341, -1145279685, 1034629814, -1149767647], [-1140774041, 1020073858, 1041000876, 1051046277, -1116428371], [-1170783891, -1171762310, 1011099266, -1138764935, 1029717486], [989525103, -1159470405, -1129994016, 1017331548, -1131415740]], [[1012383342, -1120750361, -1125549086, 1010704103, -1218483285], [-1170760226, 1033791749, -1134434641, -1129174589, 1008493678], [1029064656, -1101110079, -1121104375, 1031687215, 1029643062], [1020023883, -1115686225, -1136274511, -1121289243, 1007646847], [1014484770, -1144916599, 999573456, 1015434390, -1154078956]], [[-1159431258, 1015693301, 1011056989, -1191515897, -1160356512], [-1131761864, -1123095600, 1027064469, -1123958136, -1145000303], [-1128451075, 1023941404, -1099436416, 1032471925, 1016976523], [981928963, -1123081926, 1049983190, 1022170740, -1135225240], [-1137254213, 1016115485, 1033109887, -1141289145, -1139321863]], [[1003167682, 1020176182, 1008349744, -1123731191, 1007174784], [984521494, -1109859072, -1104361381, 1034793875, -1130658435], [992444870, -1113297163, 1056655429, -1110964458, 1031449660], [1014004659, -1138027695, -1159552023, 1008505246, 987665654], [995405038, 997480813, 1019826916, -1149987503, -1153770787]], [[993303606, 962093344, -1124725563, -1122506233, 998456364], [1015419639, -1127345980, 1029830675, 1037835958, 1023358712], [983322715, 1013503979, -1091290797, -1137393429, 1001271248], [1007064344, 1024413988, -1124772071, 1019615297, -1132056578], [958647832, -1138442887, -1124608655, 1017640868, -1145765791]], [[-1153867689, 990019626, -1145885159, 1008790771, 971037769], [1002630679, 966016729, 1030693715, 1016204842, -1127479250], [1023944200, 1031503813, 1041482014, 1046532507, 1029135506], [-1174398440, 1024953047, 1030939305, 1049623493, -1118202177], [1007329210, 1005605990, -1124946815, 1018894051, -1128114491]], [[1002807324, 973286205, -1130535172, -1157069475, -1177608518], [1009776931, -1137375646, 1037519387, -1129097214, 1020033556], [-1149319449, -1111812682, -1104862426, 1031447965, -1114153589], [-1138241814, -1117076116, -1102364085, -1102118902, -1137142449], [-1149069468, 925259033, 1025174281, -1140699363, 1017027494]], [[1014017650, -1142771135, 1018164136, -1165691304, 1006410149], [983604418, 1030294494, 1039555780, -1117155718, 1009959622], [1017774387, 1017064637, -1117900346, 1048703169, 1025167990], [-1156542488, 1033101832, -1120905550, 1038496243, -1138064191], [1013358391, -1164550960, 1018588034, -1154266997, 1004891501]], [[-1138643606, 1014487652, -1155740077, 1024388288, 1001231826], [-1124943591, 1007947686, -1112374736, -1109433212, -1128929619], [-1150390307, 1031678214, 1048411403, 1041269595, 1024242256], [-1126979913, 1027396267, -1111043918, 1016402551, 1024807002], [1000501275, -1140699392, 1011160186, -1131114245, -1140447664]], [[1010137761, 1002528560, 1015285011, -1125070177, 937276687], [-1151076111, -1135650933, -1112949509, 1032108993, 1024499413], [-1127494822, -1112097464, 1030878660, 1009069620, -1113687563], [1017285383, -1106795006, 1054893184, -1102130252, -1132056874], [-1136099806, 1011908182, 1003341585, -1152810263, 1019645845]], [[-1173748897, -1129534814, 1032729126, -1132080708, -1122115395], [998733357, 1002524857, 1040740555, -1149218653, 1018512062], [1025241740, -1104135717, 1027247385, 1042139941, 999848946], [-1127768177, 1041247490, -1118311184, -1103848515, 1027670001], [1008884621, -1119205566, -1109735823, -1129273389, 1015976390]], [[1009682571, -1126961513, 1021259003, -1129478916, 1015346267], [967362432, 1017541960, -1148268895, -1110530963, -1128302265], [988635347, -1123943888, -1108033215, 1052448045, 1037913033], [-1167000137, 1017333412, -1111531719, 1043545324, -1132376106], [-1153248847, -1145319409, 1013152047, 1029810351, 1017033956]], [[-1137502891, -1136530509, 1023295920, -1137082134, 1008158078], [984564923, 1014807364, -1129416003, 1024931688, -1123708047], [1018491759, -1120479020, 1050228739, -1105186256, -1147748075], [-1136443616, -1114968884, -1122806151, 1037679914, -1133843239], [-1141384362, 1003250818, 1016182843, 1009415857, 1001356832]], [[-1135009267, -1143319345, 986388814, 1012171793, 1014642190], [-1136098345, -1132613318, 1030550193, 1031153489, 1003060830], [1025203380, -1110508358, 1041136864, 1044536150, -1111336341], [-1126491408, 1007819859, -1102174181, 1042559989, -1120884626], [1012816873, -1129046202, 1026285230, 1020253828, -1132597500]], [[-1163508387, -1146806914, -1127015429, 989531559, 1010717761], [992623603, -1136244331, -1135895147, 1030087139, -1125207040], [-1122537014, -1114653310, -1098115684, 1049179698, -1106168309], [997537093, -1143524285, -1106053271, -1135110064, 1028820473], [-1184142016, -1140417951, 1009376961, -1121236793, 991561385]], [[1013628145, 1016305368, -1133037043, 1000855451, -1129286052], [-1129286168, 1020818095, -1131169177, -1129508140, 1015471384], [-1143100757, -1138012408, -1102049175, 1032181629, -1137456321], [-1151266594, 1018753556, 1004985499, -1156553710, 1028407796], [-1142271646, 1017219216, -1117220789, 1017024370, 1010695358]], [[-1167661209, -1137644062, -1137146715, -1139437571, -1148844404], [1004836558, -1118758206, -1112265564, 1023112014, -1134639042], [1001629510, -1113691732, -1100973892, 1046896440, -1119294385], [1017410374, 1010836783, -1112965014, -1147098651, -1137340757], [-1139907239, -1139135851, -1144742320, 1006901907, 1007769196]], [[1014581454, -1134518303, -1124979987, 1017649692, 1013070741], [1016911954, 1004141413, 1032616790, 1009308512, -1135764315], [-1121594124, 1039220492, -1088841524, -1121395345, 1021085875], [-1148046404, 1016645367, -1131673821, -1109254093, 1018793459], [1008206867, -1140141519, 1022643283, 1020725994, -1135501908]], [[1016981256, -1140170818, 994290589, 1010729500, 1007072346], [-1145512544, -1141471698, 1005297600, -1108842575, 990515248], [1011267212, 1034911679, 1048490016, -1103413280, -1127874564], [975034234, 1017162933, -1109320145, 1019817984, 1015443453], [-1146155286, 980679533, -1125476285, 989177413, -1136968274]], [[-1183477151, 1019281820, -1147310092, -1133197656, 948487684], [-1141737322, 1017112984, -1102750428, 1017483692, -1132276584], [-1120867669, 1037531883, -1097394176, 1041334553, 1005353913], [1016936895, -1123336149, 1033643504, 1034991335, -1126603304], [999364187, -1134929264, -1162783257, 1017248992, -1131055936]], [[978172686, 968894818, 1022994100, -1127782753, 1007808953], [1002345111, -1129359970, 1005461430, -1130531472, 993641188], [1002472896, -1127748145, 1044000567, 1033618946, -1144294169], [1005068235, -1122530859, 1028970875, 1024337360, -1137101446], [995707982, -1125874996, 1020146383, -1147866213, -1146978284]], [[-1130510982, 1025133614, -1138119442, -1164729144, 1005583916], [1009212982, -1126295772, 1025090911, 1038355304, -1129917912], [-1151348487, 1034297779, 1044470847, -1098617588, 1029379651], [-1123217385, 1026913541, -1120840061, 1021217266, 1007924460], [994747834, -1124339765, -1137046691, -1125527262, 1014492892]], [[-1144227053, -1173063242, -1137794523, -1124019432, -1173081149], [1008637586, 1009701185, 1028678297, -1131394743, 1017018875], [1006752589, -1137555096, -1131600924, -1093305288, 1017480687], [1017106996, -1123983537, 1006464016, -1121799767, -1123538787], [984222819, 1009020106, 1018328746, -1174353085, -1139794356]], [[-1172879049, 1012593052, 1017966279, 1008688672, 981569239], [-1139208142, 987380453, -1125395364, -1119057510, -1131611968], [1016895916, 1021643521, 1043626398, -1106565386, 1032227198], [-1126829969, 1019350030, 1040806464, 1037022510, -1135871460], [-1150536920, -1151233068, -1121747973, -1124296922, 1013543893]], [[1009056444, -1142462744, 995927627, 1023815963, -1145368383], [-1140056716, -1140634159, 1029832773, -1100720087, -1139687159], [-1130061447, -1117488757, -1104653114, -1112825060, 1031203792], [1016589623, 1025825392, -1118574482, 1045633955, 1015018758], [989194121, 1018054056, 1023513279, 1019786711, -1147844982]], [[-1142556772, -1116291645, -1119552994, -1108329903, 1025479506], [-1114991579, -1107083876, 1017509225, -1117795719, -1139410239], [-1106170116, -1121068858, 1043440501, 1034836381, -1113900186], [-1113217998, 1026817524, 1035790465, 1028822039, -1116903643], [-1126508785, -1114102869, -1120406750, 1011622441, -1114404219]], [[-1156464992, -1155841324, 1023449858, -1128563584, 1009046872], [996872809, -1156075488, -1115347899, 1034132808, 973829610], [-1143044696, -1121929122, -1104808312, -1106168585, -1119894769], [-1149299596, -1116798856, -1121962683, -1102420687, 991559572], [986665634, -1131856320, 1015486175, -1125612031, 1005924467]], [[-1169167722, 990971767, -1120490238, -1131436428, -1145756111], [1012048722, 1014153732, 1044626241, 1034379397, 1008258856], [-1118083629, 1040511015, 1040348967, -1103222048, -1126797540], [-1189411562, -1131260457, -1103523128, 1008359511, 987919012], [-1151615878, 1003382067, -1124827971, 1013389948, 1007427841]], [[1005033203, 985058438, 974630761, 1010060233, -1148625822], [-1132011330, 1019087513, -1126286524, -1119739777, -1144489953], [1019232815, -1127255194, -1093323226, -1114425509, 1013913049], [1002267569, -1132990113, 1025134471, 1029458320, 1001210074], [-1161896726, -1134048999, -1153763686, -1140838571, 1021020395]], [[-1159360650, -1144376508, 994952565, -1136080064, -1147379674], [1010156477, -1139816871, -1120785377, -1135533594, -1179138514], [-1139309065, 1010829250, -1095989954, 1017219243, 1008472325], [-1136839997, 1025603792, 988824603, 1007159046, 998908734], [-1148810281, 1007638446, -1125721760, 1015144851, 973433836]], [[992099738, -1131608698, 977757308, -1124121517, 1016689457], [-1165090032, 1000078854, -1120530617, 984661270, -1133743794], [1007701924, -1120685252, -1099873442, 1043487604, 1035979116], [-1198869618, 1004610601, -1105431921, -1099278675, -1121487842], [1013728392, -1144064482, 1013292235, 1009540189, 1012831741]], [[-1128938115, 1017354216, 1020689514, -1123493101, -1125989056], [-1129257040, -1135950126, -1113467926, 1003306586, 1018213263], [1024185741, -1109465882, 1059105855, 1039109789, -1115563758], [1017231381, -1139200091, -1133582269, 1040638544, -1138593295], [-1140830608, 990375614, -1119591017, -1122887090, 998209393]], [[976620307, 1009706241, 1021564390, -1152411695, 982667034], [1017830421, 1018325106, 1023932179, 1039811766, -1129016125], [-1129790325, 1000790770, -1096331962, -1098352835, -1137671951], [1002365624, -1129788905, 1026535954, -1139474102, 1019650030], [-1147146628, 1005970384, 990109421, -1131105963, 1011360926]], [[-1124256157, 1022263178, -1137611285, -1131042957, -1130709575], [-1154724462, 1012047443, -1113605849, -1120911389, 959456808], [1007873585, -1107989779, 1049651552, 1024895731, -1110897659], [1031098923, 994269014, -1130209189, 993407240, 1028911069], [-1153709607, 1009624753, 1008182340, 1020710188, 1006083870]], [[1011575693, -1136340219, 1008104753, 1019393500, -1132344706], [-1137878651, 1024717302, 1036807765, -1109129704, 1008798505], [-1120310138, 1041025266, -1104222983, 1023276709, -1133869865], [1020324259, 991585234, 1042311433, -1110169386, 1021432315], [-1137992357, -1194326401, 1015542392, -1154814968, -1132679513]], [[996565011, -1130186759, 984680849, 988684836, 994098613], [-1155873781, -1126379113, -1138434603, 1004935015, -1155939785], [-1134724231, 1021074209, 1064682016, 1049273360, -1123860995], [-1140806421, 1014757507, 1055401795, 1010670245, -1122602057], [986919271, -1141464581, -1126910893, -1137811942, -1155667040]], [[999472496, 1015145461, -1136288020, 1025629431, -1138075700], [1008887488, -1128338322, -1124401189, -1120275445, -1158464067], [-1121418484, 1042696472, -1104164495, 1018317926, 1003531334], [-1122798977, 1031231515, -1136274610, -1108660643, 992153185], [-1132772494, 1030219514, -1122877499, -1129203077, -1137510803]], [[-1135950723, 1000213803, 1023914970, -1127220715, 983412580], [-1139491683, -1142564966, -1143681821, -1151895533, -1154174855], [-1170053849, 1027144285, 1049844534, -1113569409, 1019653846], [-1134359614, 1026955390, -1101340231, -1119602617, -1134051675], [-1166438122, 1017658342, 970757521, -1123621114, 999451346]]], [[[1005117514, 1022521945, -1120895665, -1124035343, 950536519], [-1143799636, -1115292979, -1105321863, -1122576340, 1021743047], [1023850098, 1043427659, 1053145130, -1183185547, -1115492595], [-1129265115, -1111614625, 1043136741, 1028316124, 1011952780], [991743603, -1130461493, 1027947585, 1020644160, -1148662536]], [[998855316, -1145917200, 1018585254, -1129362314, -1188117918], [-1130365487, 1026025986, -1104565535, 1013591602, 988116072], [-1147187109, -1116115196, -1092579320, 1034716598, -1125390884], [-1133958328, -1129195039, -1110022194, -1121076455, -1163156600], [991232149, -1132681457, 1018402688, 1013673138, -1139130567]], [[-1152814687, 1013601847, -1152032116, 991418668, 996124164], [1012663177, -1128111793, 1037917493, 1021472012, -1123985591], [-1119199936, 1030232455, -1094033910, -1117933691, 1018352841], [1020641212, -1121283641, -1098900799, 1035481850, -1138904260], [1018320006, 1002348203, 1015090488, -1123122578, 1002179313]], [[1005673154, -1149899783, -1123329624, -1122743385, 1019574215], [1024314774, -1124674776, 1015612586, 1032765610, 1018046238], [-1121702237, 1030684611, -1093542890, -1114290059, -1118191577], [1011481593, 1035625691, 1045318730, 1027402779, -1144132331], [-1142731592, -1129260409, -1112284624, -1118972187, 994701040]], [[-1117516219, -1147005060, 1029208693, -1113480652, -1118874096], [-1120543936, -1129210887, 1026098664, 1024749016, -1114334451], [-1135655262, -1127744232, -1121626505, -1117804881, 1014888037], [-1132697962, -1113618980, 1022018722, -1118657225, -1135401556], [-1178846337, -1128868842, 992081288, 1026577100, 1036492044]], [[-1141373122, -1141164483, -1133037590, -1136498014, -1148214591], [-1144981592, -1118817285, -1107671115, 1017552516, -1129548785], [-1144334051, -1111129633, -1106863601, 1057199382, 1013550575], [1012250088, -1137629405, 1032549277, 1030741816, 1000748467], [997998923, 993324974, -1142434437, -1186193292, 995598846]], [[-1206378851, 993245983, 1006938553, 1016253250, -1141589293], [-1143202431, 1010286726, 1024536024, 1043779594, -1113142747], [-1151192911, 1000821262, 1013601817, 1046701961, 1031005623], [-1140689943, -1151593471, 999897255, -1135194702, -1139297379], [994498141, 986891868, 1020233554, 987016202, 995878637]], [[-1151580906, -1135138504, -1123409110, -1133303830, -1140231713], [999242571, -1128849368, -1106764699, 1038298103, 1013242104], [1035240425, -1101172378, 1048732717, -1113149342, 1024574568], [-1165137633, -1117675320, -1106496607, 1032880339, 1009515832], [-1155398405, 1012072177, -1127375087, 1018483629, 1001758313]], [[993595960, -1135604070, 1011465827, 1010486816, -1142122203], [949188977, 1029649531, 1028163435, 998058572, 1015920534], [-1126139613, -1121682241, 1055815800, -1112498036, -1130025657], [-1138609676, 1027660685, -1107197010, -1143955266, -1150894691], [1007358231, -1146076927, 1027237382, -1147324529, -1145713334]], [[1008205330, -1128294408, 1006395896, 1005775968, -1138573005], [1016998477, -1119827587, 1048978416, -1108454882, 1024280646], [-1129728468, -1133536220, -1114039515, -1145041908, 1026088405], [-1182400651, -1126464267, 1029178801, 1014267825, 976570686], [1007454310, -1147753015, 1018795172, 987629362, -1155318252]], [[985959659, -1132802393, -1125687876, 1018353809, -1152633036], [1016918404, -1121454314, 1029990060, -1109294540, 1012880260], [1006163696, 959164101, 1023811446, 1047559761, -1123201726], [-1156826165, 1008310191, -1110608919, -1114311889, 1007400802], [979268324, -1146119664, 1012478071, 1004883474, 981378861]], [[979778767, 1006833007, 1008111285, -1150956984, -1134081621], [-1135385987, 985961997, -1111915545, -1122616117, -1139696820], [-1123112253, -1148362923, -1103118320, -1102190864, -1119117980], [1005905246, -1163505267, 1028325593, -1102999340, 1018972090], [989811834, -1139951154, 1026348463, 1016515011, -1153128271]], [[1006799781, -1148110282, -1131871381, 1015381751, 999409033], [1009611416, -1123153248, -1120468631, 1000059203, -1127667073], [1022570616, 1024545442, 1047715985, 1025034164, 1022027150], [1012460550, -1134419164, 1027710396, 1043139847, 1001635641], [-1160750851, -1152500919, -1114227495, -1123987097, -1161462432]], [[994064618, 985978273, -1122583255, 1032645041, 1018183650], [-1131958882, -1114552448, -1105623901, 1024540687, 1017358092], [-1141671825, -1140111483, 1057600836, 1036604233, -1144205865], [990060300, 1024316302, 1042450882, -1119888204, -1129427245], [-1146625839, -1136660537, 1022363899, 1019358792, -1125315123]], [[-1133388477, 1013354699, 999583733, -1133031165, 1009397963], [-1137193306, 1026682373, -1114740458, 1038732519, 1007753191], [-1125987600, -1141403588, -1105689965, -1099466356, 1016532307], [-1139956359, 1015697318, 1041732345, 1034218423, -1145177988], [-1150628178, 1003617282, -1118968021, 1023842680, 1002002465]], [[-1164543362, -1122965246, 1015164408, 1006649077, -1143874801], [1008673603, 1024699130, 1038389346, -1112646277, -1121015133], [1021929280, -1134979452, -1094681355, 1048575568, 1029258009], [1011763511, -1121527990, -1118185043, 1041610414, -1165807628], [1005790648, 1008038246, 1025426797, -1121733715, 1007785813]], [[985773057, -1133697314, 1027374568, -1127739397, -1140429976], [1012406586, -1114410990, 1047924617, 1043655799, 1016960372], [1024730158, -1121242418, -1093838422, -1107207118, 1024916803], [-1135419285, -1169236058, 1044439544, -1122952409, 1013812464], [1020702177, -1156044673, 1028742673, -1122082668, 1014105956]], [[1006907013, 1009803210, 958871093, 1020735389, -1167615413], [1006823174, -1144874005, 1020146215, -1105934201, 1038725109], [1008324791, 1026786601, 1046296834, 1038190471, 991315142], [-1174036877, 968605688, 995157600, 1025427265, 1004350297], [935884894, -1163956556, -1135065593, 1025274869, -1130721422]], [[982193942, -1163408919, 1014967088, -1154638171, -1155477210], [-1146567351, -1130327783, 1012106786, -1122184301, 998935173], [1019252792, -1113352192, 1037147190, 1036855964, -1130886234], [-1138728794, 985344751, 1028484941, -1120745441, -1131004328], [-1137653609, -1157554539, 1011151219, 998568631, -1176473913]], [[1003957901, 1001663926, 1025075961, 1004771400, -1137050685], [1010436526, -1118858906, 1041294892, -1136562253, 1005978062], [1019387319, -1114493111, -1106149140, 1050054586, -1115941386], [-1129247787, 1024468944, 1022450283, 1021768038, -1145501782], [988199746, -1128771126, -1113860361, 1007831574, 994609215]], [[-1160783312, -1136557418, -1135273828, 1010568765, -1136807826], [1010910979, -1142741186, 1040523240, -1108399723, 1032283837], [1007598225, 1007158198, 1050944724, -1105246438, 1032239399], [-1123205043, -1122899468, 1028037412, 1027248207, -1117503906], [1009655213, 1019007487, -1164800055, 1015480587, 1018887023]], [[-1160817134, 1015713364, -1127655511, 985754569, -1168308740], [999193126, 1030945926, -1121557495, 1034396880, 1015484123], [-1145455078, 1041719451, -1103440861, 1027701573, 1031363383], [1018695989, -1121328980, -1104326850, -1145538763, -1134478099], [998957566, 1005285856, 1029273329, 1011612047, 1004203495]], [[-1185563845, 1014361863, 976624113, 1007070209, -1139233220], [1015446306, -1128426669, 1039342547, -1120982616, 988926567], [1018603258, -1142119375, 1047941729, -1095359227, -1115021817], [-1147025979, -1135651902, -1103682037, -1110621440, 1024785744], [996667249, -1165214968, -1135457330, -1129986277, 981813072]], [[-1150642711, -1135069223, 1010485631, -1133406401, 992037746], [1013630119, 1029585402, -1112015407, 1025161906, 1004654774], [-1120610791, 1036530101, -1089895801, -1102997742, 1022501765], [976080941, -1142687685, 1043260915, 1033005896, -1127936842], [1015026871, -1140571444, -1125045495, -1135451618, 1008114074]], [[1007287540, -1163153458, 1020468868, -1126403004, -1187253003], [1019684399, 1020279441, 1011579818, 1037881759, 996018472], [989004883, 1024499570, -1096418559, -1103158319, -1116974702], [970978610, 1017413970, -1136888051, 962432827, 1017894938], [911058557, 981267482, -1129395007, 1008300647, -1156606835]], [[-1154632583, -1145774233, -1130239468, 1021774353, -1150391207], [-1129520080, 1037904845, 1038839457, -1115609777, 1017169526], [-1140405191, -1163633252, -1097694535, 1040957097, -1118718290], [973252418, -1119417633, -1125107473, 1024047997, -1125296262], [-1188296729, 1006529998, -1142554730, 1022779108, -1154284525]], [[993390791, -1134900350, 1025316243, 1005993278, 1019674254], [1005788419, -1132409899, 1031533928, -1117485080, -1121914042], [978117152, -1120664486, 1049268415, 1033100344, -1131035030], [-1140172777, -1126954703, 1034343536, -1142492234, -1160751154], [1011386396, -1132939783, -1151662157, -1198456830, -1146211026]], [[1009001564, 1002182003, 1008165739, -1131671147, 1007030072], [-1136937697, -1130882371, 1035338485, -1117430005, 1007680514], [-1123499967, 1035588727, 1048680908, -1123496250, 1018555640], [994353356, 1024232274, 1022201050, -1108660947, 1020903043], [990713284, -1127890605, 1026139661, 1018350395, -1140002970]], [[-1155657293, -1147562536, -1144290385, -1132136533, 1009205840], [-1171746288, -1132554665, -1121720650, -1110198522, 1018050387], [1014240140, -1127599065, 1033552086, -1105343559, -1125292761], [1006616611, -1148559935, 1000578226, -1135498762, -1140237928], [-1158375773, -1138570186, -1147066498, -1135975474, -1145483164]], [[-1156768225, 1008971264, 989817779, -1130735931, 1015721751], [-1132858796, 1023835644, 1036649637, -1136373910, 1002024460], [1008833779, -1147021459, 1030751580, -1113411306, -1118901994], [1009737978, 1020433966, 1011293197, -1128180907, 1021730713], [-1139232491, -1152774508, 1025919375, 1020592293, -1155165571]], [[-1139484672, -1160016233, 1007009077, 1014628068, 1009337909], [1003533347, 1021440915, -1150220883, 1048304457, -1123091830], [-1157683329, 981117839, 1043573722, -1105919676, -1117066556], [-1131840544, -1129738254, -1119449318, -1105999775, -1118878568], [974085771, 1006740420, 1016438853, -1135461121, -1167054973]], [[-1123144591, -1108699015, -1140250159, -1123185306, -1114539667], [-1104856853, -1117991912, 1018262908, 1023448039, 1028620862], [-1108001010, 1036059056, 1046574840, 1039687666, -1118026896], [-1112212975, 1004003656, 1022189239, -1106714790, -1116090117], [-1118300270, -1111090185, -1112638326, 1006509922, -1136040213]], [[986648973, -1142557346, 991433315, -1144725444, -1144506193], [-1155556816, -1135876529, 1040199252, -1113693110, 1021937273], [1017419777, 994652638, 1045643224, 1046060396, -1142407213], [-1144831012, 1033241624, -1131997271, 1035715064, -1144497083], [-1137520169, 1013245333, -1128532385, -1140273064, -1140638319]], [[-1165982722, 1012956844, 1017986769, -1142252805, -1144215860], [-1130576514, -1135674645, -1112202812, -1115868023, -1123443376], [-1140048426, 1032575311, 1040367226, 1022849603, 1027908420], [-1128524539, -1139351979, 1037387178, -1177345295, -1131385569], [-1170456716, 1015257064, -1131082955, 1008540147, 1016752394]], [[993746910, 1015594486, -1139530062, 1007731769, 995895243], [980519596, 1027044234, -1115305401, 1010660068, -1130854229], [994072989, -1110951907, -1098527136, -1101824018, 1019816016], [1010743026, -1130112800, -1120566721, 1012279135, 1018718181], [985917267, -1131883252, 1015775970, 1024024125, 997218241]], [[998310317, -1139702676, -1136107421, -1143671584, -1180824922], [1009610930, 995370146, -1114818249, -1123658804, 991253737], [-1133866216, 1027273222, -1101507573, 1016466941, 1013222899], [-1147310663, 1002811109, -1109863383, -1146696634, -1140466387], [-1142041166, 1003684036, -1148953792, 1019496130, -1164021243]], [[-1164178275, -1134321888, -1135972991, -1156031306, -1142011149], [-1160617664, 1010466315, -1117097659, 1040339633, 1023952075], [1006441563, -1122397172, -1093278646, -1101132746, 1024824428], [1011323482, -1153698282, 1037538833, -1154460567, -1182532088], [991364622, 1014011711, -1127853754, -1128228008, 1007839483]], [[968085410, 1024426174, -1123971187, 1024425633, -1169972994], [-1124674178, -1112311780, 1031928234, -1126768670, -1141046409], [1028510119, -1114796052, 1055206429, 1050239177, -1117699331], [1010123988, 1016453403, -1103572949, -1111623749, 1007326325], [-1131717583, -1143388334, 1028057777, 1005022502, -1138598259]], [[-1144918804, -1127918404, 1007802854, -1133554839, -1137216627], [-1129144668, 1019633040, 1041819264, -1104906613, -1121411570], [-1189851011, 1009471997, -1115947920, 1003299261, 1027038990], [-1150173147, -1131295718, -1128471518, -1117056412, -1134836246], [-1156836205, 1008378470, 1018362344, -1124002953, 1013593014]], [[-1168134310, 1022194518, -1146134315, 1025565786, 1021990520], [-1136880189, -1123370116, -1108953329, -1120720520, -1114705936], [1022751182, -1132854925, 1050471837, 1048923279, -1121985920], [1009702105, -1113810585, -1106468425, -1100568100, 1022518317], [-1139790912, 1006892754, 1020424092, 1011973105, -1144382058]], [[-1141357594, 999687405, 1017782285, -1124463840, -1163051053], [-1135211474, 1032078427, -1105678468, 1037385654, -1123345163], [-1123382731, 1038417497, 1039648532, -1099441286, 1021930182], [1015849796, -1121763684, 1024018355, 1027522026, -1148360953], [1003868800, 1011871990, -1132165062, -1128599802, 1009953922]], [[-1151945370, -1132420973, -1124294760, -1131237068, 987295378], [-1133594339, -1137156045, 1049778945, 1040218290, 1001499808], [-1130601811, 1031523192, 1066003191, 1046214706, -1118030894], [1008205438, -1123227095, 1018350501, -1129207641, -1128170051], [980689482, 1011074331, 1015511272, -1129040257, 989996734]], [[-1155648741, 992650692, -1128983391, -1129592660, 1004357205], [961033028, 1004822552, -1100626393, 1037513901, -1136135133], [-1121929012, 1048902655, -1099706674, -1107315540, 1018569961], [-1132585632, 1034645933, -1113042321, 1019940984, -1133914978], [-1139377464, 1015463370, 1007998152, -1142299370, -1147435419]], [[954347532, 1020960611, 1009789237, 1010083781, -1159561123], [-1136716971, -1128985487, -1189891976, -1116123704, 1023848732], [-1134723512, 1033276612, -1099969608, -1143262905, -1157193883], [1011160111, 1029336696, 1037821558, -1120795138, 1010725031], [-1136739638, 1000566145, -1116170870, -1123725827, -1148302065]]], [[[-1146299298, 1015956538, 1032429113, -1122105477, -1121886596], [1010113133, -1139811680, -1114551305, -1122742068, 1023554955], [-1128434488, 1009403875, 1053237657, 1042660352, -1125365956], [-1128979416, -1097694410, -1095941952, -1113964522, 1014603718], [-1147376454, 1033124518, -1116173207, 1010711837, -1138307331]], [[988602832, -1138767923, 1004139615, -1131210321, 999733553], [-1139509149, 997663420, -1146435920, 1017529866, 1018685139], [1029166541, 1038664011, 1045536909, 1029475223, -1118145104], [1026824496, 1027098203, 1051256545, -1140526247, 1003005839], [1018955428, -1137028684, 993704585, 965545641, 1009380196]], [[-1141965360, 1012966783, -1153321757, 1008353756, 1005968753], [-1148644451, -1118619788, -1140059535, -1122577195, 1019014897], [-1137068869, 1040369110, -1121268793, -1142912767, 1027803231], [1023644083, 1046406601, -1115024297, 1001779408, -1196010657], [-1152465512, 991302656, 1035386366, -1147299403, 994142013]], [[-1143331272, 981248335, 1033326379, 1019026600, 1001729165], [-1148339823, -1136441382, -1102594320, -1116780071, 1007918215], [-1147565280, 1007391710, 1059324095, -1118326981, 1007093251], [-1130364461, -1098306887, -1106382633, -1156117267, -1126960900], [-1128620270, 1016702055, 1030060497, 1021334516, -1127174005]], [[1007304346, 1020824819, -1120595922, 1008005650, 1029875095], [1009606093, 1026192390, -1118350387, -1121688992, 1031303500], [-1134516710, 998268026, -1122342376, 1022358754, -1125407451], [986423721, 1028171849, 1015447532, 1018049071, -1136128757], [996728411, 1020087105, -1117377532, 1010217451, 1035911159]], [[1005005068, 1007767165, -1138333453, -1150967805, 1008365317], [-1164886075, 1017821848, 1041678391, -1114462457, 1017536963], [1024301385, 1033294366, 1044169060, -1111827646, -1126557870], [-1172992354, 1008631619, -1098697205, -1122895387, -1135440445], [-1165384652, 981185398, -1130019800, -1126267634, 1004406704]], [[-1156411782, -1158321227, -1125735135, 983147938, 998397189], [983339059, -1142911755, 1021592398, -1118190246, 1027721411], [1007866569, -1122860602, -1097049397, -1104436453, 1033286336], [-1145464144, -1137981658, 1026136201, -1123926287, -1127624105], [991259853, -1151979672, -1134790551, 941351849, -1154832241]], [[-1137745623, -1127820340, 1026512286, -1136606188, -1144104838], [1005907187, 1033587171, 1025963333, -1115209520, 1013624392], [-1143230216, 1043388092, -1103458856, -1171797259, 1022759062], [-1119913044, 1038265794, -1115582064, 1001128790, -1129308518], [-1143528073, 1023301120, 996067478, -1120431325, 1011232597]], [[1011788872, 1002203580, -1129372216, 1012073129, -1180681588], [-1139384668, -1124064394, -1121987129, 990097186, -1146494956], [1016640745, -1103466207, -1119511741, 1030350842, -1127522450], [1016083511, -1128130400, -1116221976, 1032973733, -1136214513], [-1150014556, -1121866365, 972368683, 1015701556, -1142596248]], [[1015181509, 1022774545, -1132497635, -1144451338, 1004391561], [-1125880811, -1110027066, -1118173173, 1024695041, -1125473115], [1015988766, 1005548263, -1109832307, -1120787281, 